{"1_kernel": [[0.04115760326385498, -0.0744471624493599, -0.04956359788775444, -0.08185570687055588, -0.08527656644582748, 0.07380165159702301, 0.0696704089641571, -0.03834874555468559, 0.06015796959400177, -0.0736677348613739, -0.07625605911016464, -0.021420039236545563, -0.022571809589862823, 0.03847678005695343, -0.004939354956150055, 0.06420603394508362], [0.00042872875928878784, 0.04300369322299957, -0.04793625324964523, -0.0017204433679580688, 0.08233653008937836, -0.017744101583957672, 0.0786181390285492, 0.016767136752605438, 0.011294059455394745, -0.007434539496898651, -0.07350905239582062, -0.0084090456366539, -0.07319647073745728, -0.04806904122233391, -0.03805210068821907, -0.037865445017814636], [0.07773533463478088, -0.05849604308605194, -0.08221014589071274, 0.017901740968227386, -0.0444239042699337, -0.04342542216181755, 0.02867422252893448, -3.4071505069732666e-05, -0.0407177098095417, -0.005933478474617004, 0.011681035161018372, -0.07682034373283386, -0.02676985040307045, -0.0547662116587162, 0.04270355403423309, 0.04016995429992676], [0.02863379567861557, -0.06171815097332001, 0.012218989431858063, 0.031559012830257416, -0.013705126941204071, 0.07339991629123688, -0.07745775580406189, -0.04022485017776489, 0.022527888417243958, -0.05003298446536064, -0.0474923700094223, 0.019338533282279968, -0.041510209441185, 0.023512102663517, 0.055127277970314026, 0.027140498161315918], [-0.020593374967575073, -0.009029075503349304, -0.05421008542180061, 0.011174529790878296, 0.025676846504211426, -0.05716251581907272, 0.017896004021167755, -0.021209828555583954, 0.06271381676197052, 0.04659208655357361, -0.02255045622587204, 0.006353430449962616, 0.004870370030403137, 0.01738608628511429, -0.044286470860242844, -0.05210480839014053], [-0.05089202895760536, -0.004866093397140503, -0.08289667963981628, 0.044588446617126465, 0.07886423170566559, 0.0019063577055931091, -0.06805477291345596, 0.07779838144779205, 0.0353696346282959, -0.038478389382362366, 0.08375054597854614, -0.08364944905042648, 0.002700403332710266, 0.023272819817066193, 0.016823522746562958, 0.06243693828582764], [0.05672737956047058, -0.05865812674164772, 0.043214425444602966, 0.057461127638816833, 0.028101027011871338, -0.03204045072197914, -0.021037809550762177, 0.021285831928253174, -0.08659803867340088, 0.007636822760105133, 0.04437500238418579, -0.0011333301663398743, -0.08099506795406342, 0.07891590893268585, 0.05925782024860382, -0.04698728770017624], [0.0025131478905677795, 0.04459895193576813, -0.04758280888199806, 0.050078243017196655, 0.06874723732471466, 0.052074089646339417, -0.00475001335144043, 0.010578453540802002, -0.08020482212305069, -0.015265695750713348, -0.065949946641922, 0.042901843786239624, 0.026561036705970764, -0.06457556039094925, -0.023849815130233765, 0.054420799016952515], [-0.028702963143587112, -0.06790195405483246, -0.07872064411640167, -0.008885987102985382, 0.04778781533241272, -0.06817083060741425, 0.035697005689144135, 0.012525014579296112, -0.008014261722564697, -0.03865304961800575, -0.05264903977513313, -0.02357371896505356, -0.05029456689953804, 0.06400509178638458, 0.07979460060596466, 0.07964231073856354], [0.07174725830554962, 0.01684427261352539, 0.06111377477645874, -0.03944096341729164, -0.0030412375926971436, 0.058181315660476685, -0.0073527321219444275, 0.008260861039161682, -0.04885305091738701, 0.057785212993621826, 0.03607824444770813, -0.07767786085605621, 0.060438722372055054, 0.03704676777124405, -0.054430294781923294, 0.03831153362989426], [-0.005086921155452728, 0.08479724824428558, -0.05425836145877838, 0.021038472652435303, -0.04884520545601845, -0.03929188847541809, -0.007366091012954712, 0.07085709273815155, 0.07245269417762756, 0.0041283369064331055, -0.031109262257814407, 0.06043221056461334, 0.022027887403964996, 0.005856171250343323, -0.016826309263706207, -0.01033502072095871], [-0.0210610032081604, -0.08604587614536285, 0.05811060965061188, -0.020543113350868225, 0.009688310325145721, -0.05664917081594467, 0.0658627301454544, -0.061764441430568695, 0.05269378423690796, -0.07849513739347458, 0.03201856464147568, 0.0109810009598732, -0.08077750355005264, -0.08131732046604156, 0.05506215989589691, -0.000664934515953064], [-0.01996440440416336, -0.06790897995233536, -0.07514390349388123, -0.001762798405252397, -0.0685272291302681, 0.0009841731516644359, 0.038569290190935135, 0.01733267493546009, 0.010302659124135971, -0.02134677954018116, 0.014702276326715946, 0.045899391174316406, -0.030602870509028435, -0.008084139786660671, -0.0009956508874893188, -0.02584690973162651], [0.04286666214466095, -0.011888932436704636, 0.0640261098742485, 0.05975380912423134, 0.07942066341638565, -0.013091225177049637, 0.06756436079740524, 0.0030549943912774324, 0.01620648056268692, 0.05241718515753746, 0.04602562636137009, -0.06490301340818405, 0.01783643290400505, -0.07085953652858734, 0.05359402298927307, 0.0072201625443995], [-0.03784733638167381, 0.0026229892391711473, -0.0793403908610344, 0.05776282399892807, 0.04302820563316345, -0.04816753789782524, 0.01684683933854103, -0.0044513484463095665, -0.061701465398073196, -0.0013958662748336792, 0.024861199781298637, -0.08148450404405594, -0.008811081759631634, 0.04991631209850311, -0.06174998730421066, 0.057477738708257675], [0.04161947965621948, 0.019624197855591774, 0.02254914864897728, -0.02785395458340645, 0.009823284111917019, 0.012250004336237907, -0.001578379306010902, -0.03789614140987396, -0.0180702805519104, -0.02585775777697563, -0.0777164176106453, 0.038261257112026215, 0.005709155462682247, -0.027441861107945442, -0.05174865946173668, -0.01689833216369152], [0.07462584972381592, 0.01497860997915268, 0.0380677729845047, 0.08394551277160645, 0.019903674721717834, 0.016900107264518738, -0.01682329922914505, -0.07604925334453583, 0.06417490541934967, 0.08266197144985199, -0.06345612555742264, -0.062245409935712814, -0.06979906558990479, -0.05804786458611488, -0.02061152458190918, 0.010349035263061523], [0.07550440728664398, -0.0464957095682621, -0.003126800060272217, -0.0049932003021240234, 0.04277057945728302, 0.07379882037639618, -0.05343515798449516, 0.02379319816827774, -0.019042879343032837, -0.00042288750410079956, 0.08522474765777588, -0.05663572996854782, -0.0715416818857193, -0.0297890305519104, -0.02136068046092987, 0.006561346352100372], [-0.05729416385293007, 0.04952333867549896, 0.06845057010650635, -0.04976165294647217, 0.02868671715259552, -0.0032926201820373535, 0.018717676401138306, -0.07596949487924576, -0.08617696911096573, 0.027514629065990448, -0.05366723984479904, 0.014673523604869843, -0.019340597093105316, -0.027254324406385422, 0.033400677144527435, -0.03786127269268036], [-0.012434534728527069, 0.057498499751091, 0.05952918529510498, 0.06249439716339111, 0.04231840372085571, -0.025900334119796753, -0.0732390433549881, 0.028040483593940735, 0.057794660329818726, -0.05880039185285568, -0.0750974789261818, 0.05227065086364746, 0.027650535106658936, -0.06008118391036987, -0.05510072410106659, 0.03936803340911865], [-0.04817112162709236, 0.0598214715719223, -0.03549610450863838, 0.018933653831481934, -0.024403028190135956, -0.04583475738763809, 0.06076408922672272, -0.00822177529335022, 0.07272225618362427, -0.003157295286655426, -0.03864528611302376, -0.03359253704547882, -0.04465325549244881, -0.07865928113460541, -0.08327023684978485, -0.060093242675065994], [0.05337776243686676, 0.011670738458633423, -0.02353605628013611, -0.040176328271627426, 0.08330845832824707, 0.059062659740448, -0.08257991820573807, 0.05705566704273224, 0.08536925911903381, 0.028377249836921692, -0.034815847873687744, 0.07749564945697784, 0.0026751086115837097, 0.05102859437465668, -0.042601872235536575, -0.01588931679725647], [-0.013340406119823456, 0.06959019601345062, -0.024570666253566742, -0.009807735681533813, 0.06053599715232849, 0.05843783915042877, 0.03527713567018509, -0.009458258748054504, -0.03495749086141586, -0.016541972756385803, 0.06343787908554077, 0.0060440003871917725, -0.020246699452400208, -0.081275075674057, 0.0004092603921890259, -0.0056688785552978516], [0.0007517635822296143, 0.06245604157447815, 0.07916584610939026, 0.019130341708660126, -0.0656743049621582, -0.017102062702178955, -0.006791077554225922, 0.07213130593299866, 0.0033900588750839233, -0.05571294575929642, 0.025100670754909515, 0.030520476400852203, 0.009640038013458252, -0.06933290511369705, 0.05748438835144043, 0.06089547276496887], [-0.026778127998113632, -0.021669715642929077, -0.03381350636482239, -0.04462976008653641, -0.05382890999317169, -0.029031861573457718, 0.05826301872730255, 0.03402293473482132, -0.04020996391773224, 0.020167820155620575, 0.06352736055850983, -0.0027159079909324646, -0.04703083634376526, 0.041508615016937256, -0.05759091302752495, -0.07931697368621826], [-0.02472560852766037, 0.03998658061027527, -0.07474019378423691, 0.016589298844337463, 0.016185447573661804, 0.06908954679965973, -0.024305716156959534, 0.01024094969034195, 0.040007784962654114, 0.050796881318092346, 0.055213168263435364, -0.038514234125614166, -0.032154303044080734, 0.05816924571990967, 0.08476635813713074, 0.0013983175158500671], [0.03196874260902405, 0.025511085987091064, -0.021843895316123962, -0.021954983472824097, -0.05623035505414009, -0.027998238801956177, 0.07391026616096497, 0.028795383870601654, -0.08135972917079926, 0.04655420780181885, 0.03685948997735977, 0.006619162857532501, 0.07874453067779541, 0.04585061967372894, -0.0788482129573822, -0.03477321192622185], [-0.02761964499950409, -0.008606232702732086, 0.02355986088514328, 0.07345704734325409, 0.024126246571540833, 0.043011993169784546, -0.005687996745109558, 0.02176215499639511, 0.08010426163673401, 0.03493604063987732, 0.009449340403079987, -0.07334992289543152, -0.033654291182756424, 0.0726335346698761, -0.06654682755470276, 0.03758401423692703], [-0.06324174255132675, -0.053598109632730484, 0.03933648765087128, 0.026802822947502136, -0.01832886040210724, -0.018486835062503815, 0.038575902581214905, 0.04466898739337921, -0.05453797057271004, 0.021934062242507935, -0.02961278334259987, -0.018225394189357758, -0.07774562388658524, 0.02219367027282715, 0.05148380994796753, -0.06768505275249481], [0.08562774956226349, -0.0355646125972271, -0.03300420194864273, 0.052884891629219055, 0.03880468010902405, 0.051133692264556885, -0.024231135845184326, -0.05731289088726044, -0.020711705088615417, 0.02123299241065979, 0.08594077825546265, -0.04599737748503685, -0.07487808167934418, 0.0544562041759491, -0.05308181419968605, -0.030831903219223022], [0.05347420275211334, -0.0345877930521965, 0.004964128136634827, -0.08272045105695724, -0.061799339950084686, 0.01812296360731125, -0.05174420028924942, -0.05315057188272476, -0.08646952360868454, -0.013780348002910614, -0.08652310818433762, 0.03656075894832611, 0.06644834578037262, 0.06356725096702576, 0.02649771422147751, -0.031664952635765076], [0.01906924694776535, 0.08242139220237732, -0.03979858011007309, 0.08296467363834381, -0.013369977474212646, -0.07815597951412201, -0.04162166640162468, 0.039323389530181885, -0.04616788774728775, -0.08606906235218048, 0.007239148020744324, 0.021534964442253113, 0.02502456307411194, 0.007771305739879608, 0.040580376982688904, -0.057537227869033813], [0.04832451045513153, 0.01886679232120514, -0.0197688490152359, 0.05198517441749573, 0.0628913938999176, -0.07467833161354065, 0.024765536189079285, 0.04306343197822571, -0.04950752109289169, 0.05971813201904297, -0.08111722022294998, -0.03874920681118965, -0.021188683807849884, -0.04030213505029678, -0.010553739964962006, -0.018539011478424072], [-0.04949461668729782, 0.0015579165192320943, 0.06570114195346832, -0.03452359139919281, 0.02098892256617546, -0.04870876669883728, -0.006511090323328972, -0.07327674329280853, 0.0787871927022934, -0.056915298104286194, 0.05508163198828697, -0.015139399096369743, -0.03599104285240173, -0.0034270603209733963, 0.08240137994289398, -0.07526484876871109], [-0.04436842352151871, -0.04470685124397278, -0.0449259914457798, -0.0717431902885437, -0.03400839492678642, 0.027826793491840363, 0.07410500198602676, 0.08572845906019211, -0.04930936172604561, 0.008087791502475739, -0.061533838510513306, 0.017521044239401817, 0.0026552658528089523, -0.05899249389767647, 0.0011207343777641654, 0.03409363329410553], [0.029473349452018738, -0.02146051824092865, -0.01043103076517582, -0.07299414277076721, 0.08333348482847214, 0.024873945862054825, 0.027891242876648903, -0.023748274892568588, 0.07088473439216614, 0.012015492655336857, 0.018678953871130943, -0.08590086549520493, 0.01342194527387619, 0.0828074961900711, -0.05576853081583977, 0.06644801795482635], [-0.0166005901992321, -0.05819349363446236, 0.024217914789915085, 0.07397615909576416, 0.027331072837114334, 0.004372894298285246, -0.013402901589870453, 0.05140998587012291, 0.0820855125784874, 0.024754799902439117, 0.0199684239923954, -0.08334928005933762, 0.039233770221471786, 0.08483345061540604, -0.0698532909154892, -0.015085211023688316], [0.027243515476584435, 0.006680087652057409, -0.0745246633887291, 0.05026039853692055, -0.06528344005346298, 0.03945622593164444, -0.05874093249440193, -0.042546596378088, 0.004366407170891762, -0.05568748712539673, -0.07565904408693314, -0.06661038845777512, -0.047965165227651596, 0.01744377799332142, 0.08449331670999527, 0.03830922022461891], [-0.05454455688595772, -0.06015262007713318, 0.06739190965890884, 0.017772963270545006, -0.07370726019144058, 0.012424259446561337, 0.04159053415060043, -0.07439383119344711, -0.08510404825210571, -0.06116887181997299, 0.054894719272851944, -0.06788279861211777, -0.01220887154340744, 0.019875725731253624, 0.018874432891607285, 0.04270678758621216], [-0.018239518627524376, 0.0435926653444767, 0.051823124289512634, 0.02502065896987915, -0.06466127932071686, -0.015133602544665337, -0.03477898985147476, 0.05381711572408676, 0.06185387447476387, -0.037002455443143845, -0.03474128991365433, -0.03514837846159935, 0.06026555597782135, -0.006467263214290142, -0.0015656063333153725, -0.046821463853120804], [-0.05559225752949715, -0.002838577376678586, -0.013740871101617813, -0.010188261047005653, -0.021837444975972176, -0.026700459420681, -0.014756196178495884, -0.07133687287569046, -0.06519480049610138, -0.03901277482509613, 0.023946529254317284, 0.03877031058073044, 0.06374537199735641, 0.0446903333067894, -0.012635485269129276, 0.051463782787323], [0.07779355347156525, -0.009824801236391068, -0.08316177129745483, 0.01117844507098198, 0.04424408823251724, 0.08548333495855331, -0.04423147439956665, 0.029085492715239525, 0.0006675633485428989, 0.07621809095144272, 0.04902556538581848, 0.08152412623167038, -0.0508575364947319, 0.06074753776192665, -0.01547528151422739, 0.028528137132525444], [-0.01364065520465374, 0.052514802664518356, 0.052749671041965485, -0.07540637999773026, 0.034106601029634476, -0.07819510251283646, 0.0004865358059760183, -0.06303372979164124, 0.015704460442066193, 0.08531065285205841, -0.058265119791030884, -0.07293101400136948, 0.0029199356213212013, 0.0765070766210556, -0.05879512056708336, 0.07966922968626022], [0.00024617748567834496, -0.028502462431788445, -0.03135347366333008, 0.0614253506064415, -0.070652537047863, -0.007200665306299925, 0.061659153550863266, 0.038059622049331665, -0.0778614729642868, -0.014490682631731033, -0.023009562864899635, -0.08647110313177109, -0.05608826503157616, -0.04617328941822052, 0.039324402809143066, -0.07962629199028015], [-0.012571819126605988, -0.0828205943107605, -0.04094896465539932, -0.046488434076309204, -0.02431434392929077, 0.00494748679921031, -0.05092601105570793, 0.03663626313209534, -0.05315450578927994, 0.05550871789455414, -0.06363452225923538, 0.06931459903717041, 0.043842773884534836, 0.0271842572838068, 0.03796651214361191, -0.07341402024030685], [0.04804525151848793, 0.04973819479346275, -0.025602614507079124, -0.06206879764795303, -0.07579650729894638, -0.011007759720087051, 0.07228831946849823, -0.014416652731597424, 0.014457909390330315, 0.060677073895931244, 0.02411646954715252, 0.07578334957361221, -0.02078585885465145, -0.08129964023828506, -0.01335558295249939, 0.060507699847221375], [-0.041030362248420715, -0.02940915711224079, -0.0401945486664772, 0.05540931597352028, 0.055220067501068115, 0.022170497104525566, -0.06565675884485245, -0.02003953978419304, -0.0815398246049881, 0.07062727212905884, -0.06911423802375793, -1.1581872058741283e-05, -0.05580655857920647, 0.019406842067837715, 0.08133362233638763, -0.021518539637327194], [0.03925713896751404, 0.05731316655874252, 0.0594363734126091, -0.06081778183579445, -0.0274682454764843, 0.02810131572186947, 0.005037056747823954, 0.067153699696064, 0.005043055396527052, -0.029276298359036446, -0.010903190821409225, -0.01160480361431837, -0.010760702192783356, 0.0846806988120079, 0.044171735644340515, -0.03970184177160263], [0.08419650793075562, -0.006953825708478689, 0.06361564248800278, -0.08132220059633255, -0.06711143255233765, 0.0837969183921814, 0.035281453281641006, 0.07016647607088089, -0.0486922450363636, 0.021731823682785034, 0.004220601636916399, 0.06101885810494423, -0.02102440409362316, -0.03278779610991478, 0.03167074918746948, -0.037695709615945816], [0.05261804535984993, 0.03804168850183487, 0.03952908515930176, -0.0237360130995512, -0.08328859508037567, 0.01662122830748558, -0.013147637248039246, 0.07584106177091599, 0.04578324407339096, -0.06263519823551178, 0.06534140557050705, 0.05531414970755577, -0.0015053993556648493, 0.02296573668718338, 0.029286056756973267, 0.020908011123538017], [-0.0008006889256648719, 0.02762683667242527, -0.033445075154304504, -0.028256306424736977, -0.07729363441467285, -0.022931881248950958, 0.022259917110204697, -0.03998877853155136, 0.039575137197971344, -0.05173370614647865, -0.008371631614863873, -0.019434118643403053, -0.017601529136300087, 0.060905784368515015, 0.07989335060119629, 0.05438805744051933], [-0.013687103986740112, 0.058843452483415604, -0.048326682299375534, 0.018153535202145576, 0.06704677641391754, 0.06619638949632645, -0.04127908870577812, -0.057207055389881134, -0.048997942358255386, -0.05295152962207794, 0.06101757287979126, 0.018232744187116623, -0.012427007779479027, -0.05993397906422615, -0.07764308899641037, 0.05503130331635475], [0.03021790087223053, 0.04205518960952759, -0.008983463048934937, -0.013503976166248322, 0.02281223237514496, -0.009373128414154053, 0.06339748203754425, -0.028729084879159927, -0.03778824210166931, 0.05360694229602814, 0.016199052333831787, 0.05493950843811035, 0.06437094509601593, 0.0547795295715332, 0.015791453421115875, 0.0203867107629776], [-0.026321321725845337, 0.020638465881347656, 0.004816830158233643, 0.005602248013019562, -0.04953853413462639, 0.0494379848241806, 0.04441070556640625, -0.08305661380290985, 0.08311924338340759, -0.04442596808075905, 0.00961969792842865, -0.02870893105864525, -0.02337709069252014, -0.02232864499092102, 0.056610554456710815, -0.0624338835477829], [-0.05668972432613373, 0.05239894986152649, 0.0408707857131958, 0.02339480072259903, -0.009154736995697021, 0.013503007590770721, -0.04441787302494049, 0.008536748588085175, -0.03395824879407883, 0.05304105579853058, -0.03260413184762001, 0.0777776688337326, -0.01981082558631897, 0.02078436315059662, 0.001779124140739441, -0.07975181192159653], [0.014898315072059631, -0.04888802766799927, -0.02410774677991867, 0.07102152705192566, 0.04089732468128204, 0.013508684933185577, -0.07697117328643799, 0.04199862480163574, 0.00047619640827178955, -0.0005727484822273254, -0.05290478095412254, -0.053529269993305206, 0.05971384048461914, 0.05696865916252136, -0.04654864966869354, -0.08482355624437332], [0.06740577518939972, -0.051189273595809937, 0.024422086775302887, -0.04457704722881317, 0.06812846660614014, 0.06795372068881989, 0.08524216711521149, -0.047691602259874344, 0.07561385631561279, 0.040836721658706665, 0.005588263273239136, -0.030178651213645935, -0.07650333642959595, -0.0011167675256729126, -0.054371509701013565, 0.00868217647075653], [0.03059280663728714, 0.07933816313743591, 0.04438130557537079, 0.05392138659954071, -0.030142497271299362, -0.01974952220916748, -0.07079163938760757, 0.06837669014930725, -0.02785971388220787, 0.020344525575637817, 0.04536285996437073, -0.03185569494962692, -0.007310032844543457, -0.0774543285369873, -0.033815983682870865, 0.038170330226421356], [0.023423053324222565, -0.059021588414907455, 0.07903161644935608, -0.024988409131765366, -0.053830210119485855, 0.06328116357326508, 0.04428659379482269, -0.032172948122024536, -0.04622867330908775, -0.040865711867809296, 0.0684887170791626, 0.045777350664138794, -0.03216782584786415, -0.011309027671813965, 0.06837354600429535, 0.012143813073635101], [-0.03492437303066254, 0.03538842499256134, -0.07190240174531937, 0.041251927614212036, -0.01772504299879074, -0.07652619481086731, 0.05953693389892578, 0.07820646464824677, 0.0017980784177780151, -0.08646892756223679, -0.08344344794750214, -0.01894085854291916, 0.07859218120574951, 0.07429017126560211, 0.03405023366212845, -0.0006419345736503601], [-0.0192218367010355, -0.01022031158208847, 0.008492887020111084, 0.019742045551538467, 0.005886873695999384, -0.07179811596870422, -0.03799162432551384, 0.05776500329375267, -0.03977899253368378, 0.07412748038768768, 0.06016187369823456, 0.023934340104460716, -0.0576477013528347, -0.06420005112886429, -0.04870453476905823, -0.033778633922338486], [-0.07326503843069077, 0.018937846645712852, -0.06905157119035721, 0.03317214921116829, -0.07847648113965988, 0.014256562106311321, -0.07341939955949783, -0.01084981020539999, -0.048446644097566605, 0.026238184422254562, -0.08045245707035065, -0.026416977867484093, 0.06201843544840813, 0.08437585085630417, 0.006618472281843424, 0.07152816653251648], [-0.03915797919034958, 0.08141248673200607, -0.07831650972366333, -0.05365731939673424, -0.04182138666510582, 0.08215797692537308, 0.038011111319065094, 0.011479020118713379, -0.06542868167161942, -0.08356236666440964, -0.018138337880373, -0.080644391477108, 0.06778476387262344, -0.06493470817804337, 0.07575301826000214, -0.06059176102280617], [0.08405245095491409, 0.03856935352087021, -0.0244256854057312, 0.051204901188611984, 0.05008222907781601, -0.07292190939188004, 0.01337814424186945, -0.061945997178554535, -0.042683620005846024, 0.04252999275922775, -0.034345366060733795, -0.02427607774734497, 0.06769640743732452, -0.06380094587802887, -0.0602206215262413, -0.057647403329610825], [-0.07402300834655762, 0.06100432574748993, -0.05246223509311676, 0.06493660807609558, -0.0170087069272995, 0.03158901631832123, 0.04804274067282677, -0.026402652263641357, 0.009269487112760544, -0.02925659529864788, -0.02145688235759735, -0.0099995918571949, 0.04672292619943619, 0.07866817712783813, 0.0033124820329248905, -0.030057555064558983], [-0.025201601907610893, 0.05045030638575554, -0.05409238860011101, -0.015506130643188953, 0.05152346193790436, 0.014593841508030891, -0.07434581220149994, 0.05619366094470024, -0.017029792070388794, -0.07187575101852417, 0.07337328791618347, 0.003569605527445674, 0.06591491401195526, 0.06894627958536148, -0.04043500870466232, 0.020437540486454964], [-0.055056605488061905, -0.08020909875631332, 0.018069207668304443, 0.059315454214811325, -0.07693833112716675, 0.08761937916278839, 0.07898833602666855, 0.010379969142377377, 0.021588223055005074, -0.04761860519647598, 0.013576120138168335, -0.014510544016957283, 0.07792781293392181, 0.023098474368453026, -0.02834142930805683, 0.05536569654941559], [-0.003984831739217043, -0.05544079467654228, 0.06702882051467896, -0.05803869292140007, -0.0418194979429245, 0.010593636892735958, 0.026654915884137154, 0.04951440170407295, -0.029312865808606148, 0.05676443502306938, 0.00045007438166067004, 0.029705243185162544, 0.00516686774790287, -0.02944934368133545, -0.025966860353946686, 0.07837478071451187], [-0.008332338184118271, 0.00758749945089221, 0.020759785547852516, 0.053486984223127365, -0.028670314699411392, 0.07773757725954056, 0.025959167629480362, 0.052959177643060684, -0.016220755875110626, 0.06926465779542923, -0.003716337727382779, -0.038176413625478745, 0.07393911480903625, -0.023418769240379333, 0.07786330580711365, -0.022875815629959106], [-0.049692507833242416, -0.053203195333480835, 0.06395202875137329, 0.10232509672641754, -0.09481371939182281, 0.09396746754646301, 0.06318464875221252, 0.061644893139600754, -0.061455756425857544, 0.06736381351947784, -0.03149609640240669, 0.027163870632648468, 0.06366904079914093, -0.07032652199268341, 0.05707448348402977, 0.014803335070610046], [-0.05279213562607765, -0.05837605148553848, -0.03712835907936096, -0.05166657641530037, -0.05370272696018219, -0.03898557275533676, -0.015767276287078857, 0.010989121161401272, -0.045563213527202606, -0.014918223954737186, 0.03992753475904465, -0.051454365253448486, -0.05308336019515991, -0.043001074343919754, 0.039887819439172745, 0.05036633089184761], [-0.08961527794599533, 0.03210742771625519, -0.019363244995474815, 0.004836963023990393, -0.02560064010322094, 0.012249632738530636, 0.04028935357928276, -0.08718734979629517, -0.08858643472194672, -0.036381375044584274, 0.017165517434477806, 0.040998004376888275, 0.05973514914512634, -0.026001298800110817, 0.024886062368750572, -0.05038120225071907], [0.010284648276865482, 0.032691434025764465, -0.029401646926999092, 0.03149375319480896, -0.051031630486249924, 0.035774510353803635, -0.066538967192173, -0.05643197149038315, -0.07767132669687271, 0.034145984798669815, -0.06281233578920364, 0.008019967935979366, -0.049137987196445465, 0.04883459582924843, 0.051542822271585464, 0.0369376614689827], [-0.07307738810777664, 0.04514841362833977, 0.056190088391304016, -0.05572492629289627, -0.09503427892923355, -0.0033289319835603237, 0.03597821295261383, 0.07228635251522064, 0.06786440312862396, 0.07357306778430939, -0.08538781106472015, -0.032559726387262344, 0.0802415981888771, 0.018517345190048218, 0.024553637951612473, -0.022828292101621628], [0.043327830731868744, 0.014093369245529175, 0.0024243921507149935, -0.05116051435470581, -0.029723389074206352, 0.0008540287963114679, -0.07291614264249802, 0.07331249862909317, -0.07530283182859421, 0.07751365751028061, 0.06091618537902832, 0.013771601021289825, -0.009100046940147877, 0.007210000418126583, -0.06077617406845093, -0.03393993526697159], [-0.09271852672100067, 0.02201220951974392, 0.016270512714982033, 0.058786340057849884, 0.014323873445391655, 0.05832519009709358, -0.035906001925468445, 0.04824817553162575, 0.05452369526028633, -0.018777113407850266, -0.04604407399892807, -0.024232788011431694, 0.03620000556111336, -0.021037831902503967, -0.010984375141561031, -0.019871395081281662], [-0.016298498958349228, -0.043729256838560104, -0.0827384665608406, 0.01640889048576355, -0.01596866548061371, -0.00043151548015885055, -0.08937153965234756, -0.01909480057656765, -0.037929266691207886, 0.023424789309501648, 0.07641877979040146, -0.04688810557126999, 0.08698853105306625, -0.03993657976388931, 0.003759227227419615, 0.034912027418613434], [0.030507270246744156, -0.049554456025362015, 0.05315352603793144, 0.0318448580801487, -0.015375690534710884, -0.05981002002954483, 0.051466796547174454, 0.08215982466936111, -0.000529356999322772, -0.08016662299633026, -0.07022446393966675, 0.055606208741664886, -0.025682013481855392, 0.08097594976425171, 0.0523269847035408, -0.04269510880112648], [0.005543932318687439, 0.06368446350097656, -0.06630883365869522, 0.06962425261735916, -0.008193853311240673, -0.024039821699261665, 0.04993675276637077, 0.05339755862951279, -0.014429303817451, 0.020140070468187332, 0.08378878235816956, -0.07472875714302063, -0.009219296276569366, -0.009625783190131187, -0.06281382590532303, 0.008430471643805504], [0.05471571907401085, 0.009579206816852093, -0.016152571886777878, 0.03761216625571251, -0.04262417554855347, 0.05950957536697388, 0.01640835590660572, -0.08616901934146881, -0.051520634442567825, -0.03739282861351967, 0.08584502339363098, 0.08431887626647949, -0.020490014925599098, -0.03695772588253021, 0.01071728765964508, 0.06443199515342712], [-0.06306872516870499, -0.07801739126443863, 0.08529579639434814, -0.0030487861949950457, -0.005649247672408819, -0.06016885116696358, -0.04455156251788139, -0.05420054495334625, 0.0023102127015590668, 0.08009384572505951, -0.048507895320653915, 0.04863429069519043, 0.05858408659696579, -0.04503053426742554, 0.0660010278224945, 0.0825013592839241], [0.038301337510347366, 0.081882044672966, 0.05188744142651558, 0.061039116233587265, 0.08099162578582764, -0.05372322350740433, -0.07205282896757126, -0.06689838320016861, 0.055479712784290314, -0.04200243204832077, -0.08201269060373306, 0.08240393549203873, 0.03431423008441925, -0.0038303884211927652, -0.067283995449543, 0.059846218675374985], [0.0128568634390831, 0.07211028039455414, -0.006704375147819519, 0.07649268209934235, 0.015785112977027893, 0.0023247376084327698, -0.08225465565919876, 0.08024613559246063, 0.05521829426288605, -0.005280494689941406, -0.037894390523433685, -0.014582470059394836, 0.0750773698091507, 0.04325540363788605, -0.07559246569871902, 0.07635919749736786], [0.059585511684417725, 0.08236691355705261, 0.061332717537879944, -0.06298849731683731, -0.06995706260204315, -0.041343625634908676, 0.03328104317188263, 0.013010703027248383, -0.054477907717227936, -0.016099371016025543, 0.06448809802532196, 0.001542896032333374, -0.03872050344944, 0.011140979826450348, 0.02648565173149109, -0.03195600211620331], [0.05013817548751831, 0.041582122445106506, 0.07044263184070587, -0.05975383520126343, -0.0462462455034256, 0.05217145383358002, -0.07613438367843628, -0.05787805840373039, -0.01036147028207779, 0.08410245180130005, 0.03615565598011017, -0.07726216316223145, -0.08083505183458328, 0.010588489472866058, -0.003861933946609497, 0.05248028039932251], [0.02313532680273056, -0.01026812195777893, -0.05353511497378349, -0.045798398554325104, -0.0418999120593071, -0.055255476385354996, -0.06369398534297943, 0.04522334039211273, -0.03448544442653656, -0.004139214754104614, -0.06951974332332611, -0.01778452843427658, -0.07488111406564713, -0.003790535032749176, -0.04837852716445923, 0.06852152943611145], [0.08496548235416412, 0.042000070214271545, -0.04986641928553581, 0.04206530749797821, -0.06735400855541229, 0.0800313800573349, -0.05178334563970566, -0.0435180701315403, -0.036311376839876175, -0.06764408946037292, 0.0014341622591018677, 0.04717196524143219, -0.05580759420990944, -0.08498797565698624, 0.08597411215305328, 0.01611006259918213], [-0.052111174911260605, -0.03823898732662201, 0.030626580119132996, -0.07668984681367874, 0.06139172613620758, -0.005944779608398676, 0.042281195521354675, 0.05728673189878464, -0.03815823048353195, -0.01248080562800169, 0.07822456955909729, 0.04210374131798744, 0.004632742144167423, 0.08019232749938965, -0.07702871412038803, -0.03458435833454132], [0.08529267460107803, -0.06384680420160294, 0.057662006467580795, 0.06335987150669098, 0.0375443659722805, 0.05703924596309662, -0.03746233507990837, -0.06352652609348297, 0.07589196413755417, 0.0844912901520729, 0.07986309379339218, 0.0008498087408952415, -0.06191451847553253, 0.08185425400733948, 0.02608475834131241, 0.0035411627031862736], [-0.06945386528968811, -0.07636339217424393, -0.0492427796125412, 0.05504877492785454, -0.02502477914094925, 0.022592930123209953, -0.03238757327198982, 0.03221876919269562, 0.037253450602293015, -0.08543562144041061, 0.03948464244604111, 0.07268386334180832, 0.029426438733935356, -0.06084802746772766, 0.05245723947882652, 0.024442149326205254], [0.01528606191277504, -0.057449642568826675, -0.03248623013496399, -0.04705507308244705, 0.008217099122703075, -0.07686445116996765, -0.08303514868021011, 0.028386997058987617, -0.038682445883750916, 0.07077573239803314, 0.0740162655711174, -0.053780730813741684, 0.0589783675968647, 0.025272205471992493, 0.059108372777700424, 0.019100705161690712], [0.07422032952308655, 0.027314521372318268, -0.016517650336027145, -0.06829199939966202, -0.031117377802729607, 0.08694001287221909, 0.08043710887432098, 0.04437427967786789, 0.03289110213518143, -0.06644132733345032, -0.008559713140130043, -0.020753959193825722, 0.03734850138425827, 0.03978529945015907, 0.07750631868839264, 0.08319670706987381], [0.06487924605607986, -0.04128043353557587, 0.005261392332613468, 0.07287941128015518, 0.0778513178229332, 0.028776301071047783, 0.03610968217253685, -0.06132712960243225, -0.022947736084461212, -0.08151976764202118, 0.07909664511680603, 0.05761728063225746, -0.07670646905899048, 0.0035923414397984743, -0.029650868847966194, -0.07317051291465759], [0.05324985459446907, -0.07437895238399506, 0.025089414790272713, 0.06786070019006729, -0.012337621301412582, -0.02831427939236164, 0.08178429305553436, -0.016966357827186584, 0.05348780006170273, 0.014707286842167377, 0.042632654309272766, -0.04907847195863724, 0.06681985408067703, 0.0820041298866272, 0.02821890451014042, 0.0022444017231464386], [-0.026406817138195038, 0.05861618369817734, 0.08836168795824051, 0.03645668923854828, 0.05465181916952133, 0.1062164455652237, -0.019505992531776428, 0.058359257876873016, -0.026376646012067795, -0.05033080652356148, 0.06262817978858948, -0.06431439518928528, -0.056830111891031265, -0.026951303705573082, -0.024661947041749954, 0.01742243580520153], [0.021774103865027428, -0.10023124516010284, -0.058445580303668976, -0.03320234268903732, -0.07551036775112152, -0.04610881581902504, 0.1138225644826889, -0.060769591480493546, 0.053216539323329926, 0.0815456435084343, 0.010725934989750385, 0.08153045177459717, 0.02432350628077984, 0.06522718816995621, -0.07895712554454803, -0.014713031239807606], [-0.09068765491247177, -0.07273059338331223, 0.01655779406428337, -0.03279165178537369, 0.063081294298172, -0.014462004415690899, 0.03507658466696739, -0.050082139670848846, 0.020995108410716057, 0.02311793901026249, 0.017085900530219078, 0.08609376102685928, 0.04118040204048157, 0.07498972862958908, 0.06932494044303894, -0.10016927123069763], [-0.000487070094095543, -0.0439545214176178, 0.04284388944506645, -0.016185790300369263, 0.02115318737924099, 0.002390654757618904, 0.12903568148612976, -0.010351713746786118, 0.012423239648342133, 0.015058950521051884, -0.015824556350708008, -0.03123243898153305, -0.033999763429164886, 0.08306922018527985, -0.034718211740255356, -0.062408048659563065], [0.048045795410871506, -0.08427593857049942, 0.03545921668410301, 0.0036254036240279675, 0.06413520872592926, 0.04946184903383255, 0.03051815554499626, 0.007242328952997923, -0.09858660399913788, 0.07964643836021423, 0.003451772965490818, -0.0080414405092597, -0.03349022567272186, -0.021436477079987526, 0.08078426122665405, -0.05330083519220352], [-0.09313637018203735, 0.010605476796627045, -0.08075843751430511, -0.028403546661138535, -0.10404648631811142, -0.0009898494463413954, 0.03377322107553482, 0.0437634252011776, -0.08685117214918137, -0.027952924370765686, -0.031477201730012894, -0.09436526149511337, 0.10079345107078552, 0.0902004987001419, 0.07116809487342834, 0.014955142512917519], [0.02159905806183815, 0.02555565908551216, -0.08768649399280548, 0.05893773213028908, -0.02616114541888237, 0.02546718344092369, 0.1014743372797966, 0.03572719171643257, 0.05518636852502823, 0.03265877068042755, 0.07256653904914856, -0.08214779943227768, 0.05339556559920311, -0.014318770729005337, -0.016864728182554245, -0.08567897230386734], [-0.08495523780584335, -0.09741321951150894, 0.037208251655101776, 0.11733696609735489, 0.03851580619812012, 0.03627828508615494, 0.04264212027192116, -0.042414214462041855, -0.1157093271613121, -0.06319265812635422, 0.058073997497558594, 0.03528869152069092, 0.007240690290927887, -0.012942063622176647, 0.06494814902544022, -0.07275716215372086], [0.007605580147355795, -0.04256502166390419, -0.027600577101111412, -0.036420274525880814, -0.06324411928653717, 0.06311111152172089, 0.07163761556148529, 0.01861439272761345, 0.05449162423610687, 0.008636999875307083, -0.05332716181874275, -0.037631940096616745, 0.0427669994533062, 0.12174370139837265, 0.07091458141803741, -0.10751047730445862], [0.03784948214888573, 0.00015754112973809242, 0.050783995538949966, 0.005121692083775997, 0.07528412342071533, 0.10866862535476685, 0.025367675349116325, 0.033860065042972565, 0.02944054827094078, 0.05677765980362892, 0.016286328434944153, -0.07404187321662903, 0.06632808595895767, 0.07256948202848434, 0.004807541146874428, -0.06890325248241425], [0.03977462649345398, 0.021869637072086334, -0.08431711792945862, -0.009741651825606823, 0.03391081839799881, 0.12695041298866272, -0.02603527344763279, 0.06839901953935623, -0.06642904132604599, -0.03314947336912155, 0.061621539294719696, 0.027734393253922462, -0.025239521637558937, -0.03165866807103157, -0.06465622037649155, -0.07137317210435867], [0.007675499655306339, 0.029962576925754547, 0.035457294434309006, 0.06761986017227173, 0.014002791605889797, 0.05708608403801918, 0.011928198859095573, -0.05176672711968422, -0.004907434806227684, 0.04634338244795799, -0.006573012564331293, 0.023198625072836876, -0.012131202965974808, -0.025472400709986687, -0.01705205999314785, -0.04228026792407036], [-0.040065545588731766, 0.006482810713350773, 0.028873944655060768, 0.06987384706735611, -0.03571965545415878, 0.10310108959674835, -0.008211810141801834, -0.03891178220510483, -0.029605243355035782, -0.07877931743860245, 0.05299822613596916, 0.028424788266420364, 0.06366325169801712, -0.04795942083001137, -0.02738630399107933, -0.0033381872344762087], [0.07300412654876709, 0.05351037532091141, -0.04707367718219757, 0.005960201378911734, -0.004478581249713898, -0.039412643760442734, -0.0907539501786232, 0.04695197194814682, 0.03762459009885788, -0.020858433097600937, 0.0207503791898489, 0.07039414346218109, -0.02305309846997261, -0.08079776912927628, -0.029346656054258347, 0.07133066654205322], [0.019030574709177017, 0.007599004078656435, 0.01340360939502716, -0.026649950072169304, 0.07135435938835144, -0.0690709725022316, -0.06871499866247177, -0.00820443406701088, 0.07584033161401749, 0.07244016230106354, -0.039570387452840805, 0.017204469069838524, 0.020807871595025063, 0.04108629375696182, -0.05419755354523659, -0.07849863171577454], [0.03759324178099632, 0.08074650168418884, 0.011979218572378159, 0.05250103399157524, -0.07326413691043854, 0.005794494412839413, -0.005784198176115751, -0.011965828016400337, -0.020092636346817017, -0.033889416605234146, 0.013082124292850494, 0.07876692712306976, -0.015940826386213303, -0.03166135773062706, -0.08227099478244781, -0.05819769576191902], [0.08145347237586975, 0.050283774733543396, -0.014664024114608765, 0.05601660907268524, 0.029327556490898132, 0.03484479337930679, -0.05158894881606102, 0.027542605996131897, -0.019994035363197327, -0.058687157928943634, 0.013500712811946869, -0.06026428937911987, -0.057318322360515594, 0.07696667313575745, 0.042537033557891846, 0.036092326045036316], [-0.044766366481781006, 0.04932627081871033, -0.01125141978263855, 0.007425248622894287, -0.057971056550741196, 0.05620008707046509, 0.06720776855945587, 0.012459561228752136, -0.013548888266086578, -0.028543874621391296, 0.012297868728637695, 0.0358082577586174, -0.0034237727522850037, -0.041656456887722015, -0.030062466859817505, -0.05246647447347641], [-0.0012557879090309143, 0.03595156967639923, 0.009932123124599457, -0.044956572353839874, 0.0716174989938736, 0.03635333478450775, -0.07320822030305862, 0.04733124375343323, -0.058794423937797546, -0.049247320741415024, -0.07338365912437439, 0.01914898306131363, 0.03537739813327789, 0.08022631704807281, 0.04723210632801056, 0.0559731125831604], [0.05330786854028702, -0.07577874511480331, -0.022887926548719406, -0.0786367654800415, 0.013857504352927208, 0.03641880303621292, -0.07788505405187607, 0.03112262487411499, 0.045010216534137726, 0.07127183675765991, -0.011261768639087677, 0.015705853700637817, -0.051764052361249924, 0.012860571965575218, 0.027751661837100983, 0.02146725356578827], [-0.011738896369934082, -0.0077141523361206055, 0.07842542231082916, 0.01499640941619873, 0.011586330831050873, -0.026036731898784637, 0.07799717783927917, 0.06613092124462128, 0.02648790180683136, 0.05482059717178345, 0.04973559081554413, 0.056348949670791626, 0.07336130738258362, 0.05857105553150177, -0.020448841154575348, -0.020228423178195953], [0.029037049040198326, -0.05284089967608452, 0.0057376958429813385, 0.06984063982963562, -0.03237172216176987, -0.06794919073581696, -0.032683148980140686, 0.07551391422748566, 0.03537634015083313, -0.04238404706120491, -0.08013381063938141, 0.05710357055068016, 0.08047184348106384, 0.06287862360477448, 0.05352463945746422, 0.007988029159605503], [0.06973478943109512, 0.0008314484148286283, -0.01399397011846304, 0.05739505961537361, -0.012326969765126705, -0.0570155568420887, 0.023471834138035774, -0.04681091755628586, 0.004841064102947712, 0.0824795737862587, 0.02776372991502285, 0.03486740216612816, 0.07688795775175095, 0.08365986496210098, -0.05723811313509941, -0.0843457579612732], [-0.062349073588848114, 0.06723033636808395, -0.06772520393133163, 0.0738769918680191, -0.018863635137677193, -0.07220981270074844, 0.004963160492479801, 0.0048327092081308365, -0.07800640165805817, -0.015717996284365654, -0.07670345902442932, 0.03888750076293945, 0.03176771104335785, 0.07809387892484665, 0.02933092787861824, 0.002195353852584958], [-0.028149833902716637, -0.061810798943042755, -0.014320514164865017, 0.08515944331884384, 0.06493240594863892, -0.03390197083353996, 0.08165229111909866, 0.006220444571226835, 0.04189104959368706, 0.022019311785697937, -0.03851023316383362, 0.07765503972768784, 0.011598273180425167, 0.01807350665330887, 0.011066409759223461, 0.020444439724087715], [-0.04938681051135063, 0.0006782837444916368, -0.019888851791620255, -0.04519439861178398, -0.023821141570806503, 0.03830581530928612, -0.02508978173136711, 0.04806692153215408, -0.059718333184719086, 0.014746561646461487, 0.07652070373296738, 0.019916051998734474, -0.03610817715525627, -0.0005974916275590658, 0.058668721467256546, -0.09233585000038147], [0.002246395917609334, 0.06508354842662811, -0.08759620785713196, 0.0446111336350441, -0.010265453718602657, -0.014205429702997208, 0.09041737765073776, 0.06109477952122688, 0.06767570972442627, 0.008614729158580303, 0.05768865346908569, -0.00513757998123765, -0.03281805291771889, 0.020652152597904205, 0.03706716001033783, 0.009350660257041454], [-0.012546313926577568, -0.019788511097431183, -0.007495533674955368, -0.0041267117485404015, -0.015467897057533264, -0.033362217247486115, 0.04790191352367401, -0.0066219232976436615, -0.037764713168144226, 0.02219434082508087, -0.08622360229492188, 0.049765754491090775, -0.02764201909303665, 0.07090191543102264, 0.07245242595672607, -0.09830450266599655], [0.0768643468618393, 0.05570598691701889, -0.04985585808753967, 0.04047159478068352, 0.05953407660126686, 0.10706768184900284, 0.16898229718208313, 0.02497975341975689, 0.061758432537317276, 0.0027708818670362234, 0.015902483835816383, -0.03678082674741745, 0.030032459646463394, -0.02352021634578705, -0.04731474071741104, 0.025535142049193382], [-0.05194491893053055, -0.02738938480615616, 0.0046486034989356995, -0.03679371997714043, 0.012236503884196281, 0.060837119817733765, 0.15001654624938965, 0.027692675590515137, 0.05474011227488518, 0.017178673297166824, 0.07108493149280548, 0.02119826339185238, -0.027424616739153862, 0.027674006298184395, 0.05010998249053955, -0.06931187212467194], [0.023424644023180008, 0.05656922981142998, 0.014046858996152878, -0.03647065535187721, -0.029459968209266663, 0.06269165128469467, 0.07838208228349686, 0.04829202964901924, 0.053070396184921265, 0.07034137099981308, 0.05527126416563988, 0.019661469385027885, 0.012501451186835766, -0.08670835196971893, -0.044288519769907, 0.02156861126422882], [-0.016693251207470894, -0.022054467350244522, 0.10607502609491348, 0.08179565519094467, -0.03855317458510399, -0.020725388079881668, 0.03690716251730919, -0.03184293583035469, -0.012861627154052258, 0.004445813596248627, -0.0736510157585144, -0.029862411320209503, 0.038131315261125565, -0.032238345593214035, 0.02064858376979828, -0.05660446360707283], [-0.0159907229244709, 0.02099158801138401, 0.136063352227211, 0.044545114040374756, -0.100052610039711, -0.014192239381372929, 0.06567388027906418, 0.08465566486120224, -0.07901303470134735, 0.08774244040250778, 0.028381740674376488, -0.00768255116418004, 0.11247039586305618, -0.06753619015216827, -0.06658150255680084, -0.0928870290517807], [0.03652274236083031, -0.09284912794828415, -0.004573501646518707, -0.04620394483208656, -0.019819024950265884, 0.03229432925581932, 0.08691372722387314, -0.005888587795197964, 0.05879703164100647, -0.008077392354607582, -0.05822433903813362, 0.054409533739089966, 0.02030317112803459, 0.001335520064458251, 0.02423151023685932, 0.009318988770246506], [-0.04013216868042946, -0.017298376187682152, 0.021517325192689896, -0.015483337454497814, -0.0694776177406311, 0.15767350792884827, 0.07868637144565582, 0.06281180679798126, -0.06280449032783508, 0.040355127304792404, 0.03013669140636921, 0.01642851158976555, 0.08839845657348633, 0.01668141409754753, 0.03215250000357628, 0.04048561677336693], [-0.041728269308805466, -0.12772904336452484, -0.004759700503200293, 0.0686061829328537, -0.06932742893695831, 0.07957843691110611, 0.05406425520777702, -0.05137675255537033, -0.09227804839611053, -0.033823952078819275, -0.058604154735803604, -0.03500800207257271, 0.0649646446108818, 0.03658729046583176, -0.04042530059814453, -0.05249859765172005], [-0.04997198283672333, -0.03920106217265129, 0.0632455125451088, 0.09176995605230331, 0.036627668887376785, 0.07132383435964584, -0.0022744424641132355, -0.0445728525519371, 0.013882840983569622, 0.08297155052423477, 0.06059885770082474, 0.0005502447602339089, 0.04389841482043266, -0.02220417931675911, 0.030106214806437492, 0.041053447872400284], [-0.05472154915332794, 0.02806909941136837, -0.04839411377906799, -0.016197098419070244, 0.00764867290854454, 0.10393594205379486, 0.004076784942299128, -0.028383545577526093, 0.07039777934551239, 0.01988901011645794, -0.05138209089636803, -0.02508906088769436, 0.037058912217617035, 0.02266325056552887, 0.03853042423725128, -0.07139582186937332], [-0.11258401721715927, -0.09986542910337448, -0.027106815949082375, -0.05442969501018524, -0.08741046488285065, 0.12875570356845856, -0.016022812575101852, 0.00930799450725317, -0.003363517578691244, -0.08339623361825943, 0.022039595991373062, -0.0652112290263176, 0.09713228791952133, 0.0013674782821908593, 0.06847155094146729, 0.02359207347035408], [-0.038681719452142715, -0.07655805349349976, -0.057493750005960464, -0.04350361227989197, -0.044389620423316956, 0.11114350706338882, -0.09451315551996231, -0.04700466990470886, 0.009374979883432388, 0.01965591311454773, -0.07684654742479324, -0.008450960740447044, 0.02546468749642372, 0.04520782083272934, -0.08209054917097092, -0.042547065764665604], [-0.034066736698150635, -0.022031836211681366, 0.08784683048725128, -0.03888428211212158, 0.014540965668857098, 0.07729371637105942, -0.0901639461517334, 0.03734955936670303, 0.04334225878119469, 0.06270705163478851, 0.05628538131713867, -0.05785539746284485, -0.03779148310422897, -0.046082157641649246, 0.07426972687244415, -0.002725000027567148], [0.07574615627527237, 0.025405462831258774, -0.03239147365093231, 0.003692036494612694, -0.0015570117393508554, 0.07995566725730896, 0.04132599011063576, -0.08119754493236542, 0.009352434426546097, -0.08032041043043137, -0.019595175981521606, -0.08249416202306747, -0.026058942079544067, -0.006765284575521946, 0.07996497303247452, -0.04730100929737091], [0.06610260158777237, 0.037118058651685715, -0.032149795442819595, -0.09210459887981415, -0.022516315802931786, 0.07328478246927261, -0.04521201178431511, -0.07412835955619812, -0.005086489953100681, -0.06897109746932983, -0.013389616273343563, -0.009162242524325848, 0.08088958263397217, -0.007092876825481653, 0.007019376382231712, 0.0676882416009903], [0.0024684539530426264, 0.05741986259818077, -0.01325989793986082, -0.026492822915315628, 0.05847098305821419, -0.06948745995759964, 0.07711037993431091, -0.03719092160463333, 0.08098053187131882, 0.0790545642375946, 0.044118426740169525, -0.04567287489771843, -0.08183963596820831, -0.021497951820492744, 0.05313408747315407, -0.049200233072042465], [-0.045724328607320786, 0.037789106369018555, 0.02211485430598259, -0.015316308476030827, 0.007695173844695091, 0.07310948520898819, -0.0793265625834465, 0.027849681675434113, 0.031178435310721397, 0.011548671871423721, 0.0002869786985684186, 0.07714719325304031, 0.07328120619058609, 0.04433244466781616, 0.0595259964466095, 0.07716847956180573], [0.0021733343601226807, -0.01858588308095932, -0.016982056200504303, 0.020091034471988678, -0.02728230133652687, 0.07522188127040863, 0.018259815871715546, 0.027744561433792114, -0.03013508766889572, -0.023791052401065826, 0.06199611723423004, 0.0002492144703865051, -0.039426859468221664, -0.00025041401386260986, 0.023119449615478516, -0.04642519727349281], [0.04402343928813934, 0.03771277517080307, 0.06775343418121338, 0.053844526410102844, -0.023397594690322876, 0.0346350371837616, -0.03820536658167839, 0.0781274139881134, 0.010741360485553741, -0.04006834328174591, -0.04692491143941879, 0.0853356420993805, -0.059713467955589294, -0.07009837031364441, -0.00789545476436615, -0.07387365400791168], [-0.07139585167169571, 0.06471039354801178, -0.011192761361598969, -0.07165570557117462, 0.07136479020118713, 0.056868672370910645, 0.026171647012233734, -0.07412739098072052, -0.03687776252627373, 0.016233719885349274, 0.06959442794322968, -0.0744333267211914, 0.04072931408882141, -0.06724486500024796, -0.08335864543914795, 0.011421620845794678], [-0.009667690843343735, -0.0585365891456604, 0.06404365599155426, -0.05989816039800644, -0.008794953115284443, -0.006007868330925703, -0.007454826962202787, -0.03489138185977936, 0.05815248191356659, -0.07817112654447556, 0.013628460466861725, -0.01680023968219757, -0.042859744280576706, -0.0411340594291687, -0.009070433676242828, 0.06521701067686081], [0.0599963515996933, -0.015252010896801949, 0.02256281115114689, 0.03327060490846634, 0.004242416936904192, 0.04501054435968399, 0.01831214316189289, -0.07153220474720001, 0.08028815686702728, 0.00012065162445651367, 0.03599245846271515, 0.00389010738581419, -0.013269457966089249, -0.07170981913805008, -0.07680774480104446, -0.06332007050514221], [-0.019147589802742004, 0.07113932818174362, 0.0425763837993145, 0.029134053736925125, -0.06455588340759277, -0.007790381088852882, -0.07321270555257797, 0.05182982608675957, -0.06454923003911972, 0.0530666746199131, 0.029082106426358223, 0.04456215724349022, -0.0018018221016973257, -0.03117077238857746, -0.0024903174489736557, 0.021020615473389626], [0.06009919196367264, 0.047518908977508545, 0.04589787498116493, -0.05663973465561867, 0.09304849803447723, 0.02058360166847706, 0.051045890897512436, 0.09484761953353882, 0.04838080331683159, 0.016220318153500557, -0.07061921805143356, -0.002130538458004594, 0.03523720055818558, 0.03301631659269333, 0.016806675121188164, 0.033219918608665466], [-0.057681236416101456, -0.06542070209980011, -0.00407037790864706, -0.06754659861326218, -0.040913548320531845, 0.0088033527135849, 0.055316176265478134, -0.04598919674754143, 0.05487951263785362, -0.00995718315243721, 0.04296770319342613, 0.01800837367773056, 0.05653964355587959, 0.020895229652523994, 0.037111420184373856, -0.09023340791463852], [0.025736860930919647, 0.01366574876010418, 0.053354986011981964, -0.08451194316148758, -0.031589142978191376, -0.03327079489827156, 0.1053992360830307, 0.06410995125770569, -0.04909301549196243, 0.034028828144073486, -0.024972273036837578, -0.0979255959391594, -0.015178465284407139, -0.04177778586745262, -0.07329139858484268, -0.06359755247831345], [-0.010424063540995121, -0.0675080195069313, 0.06083353981375694, 0.017219064757227898, 0.03002706728875637, 0.07228869199752808, 0.1196696013212204, -0.003646626602858305, -0.005997143220156431, 0.06386665999889374, -0.02407691814005375, 0.03068142756819725, 0.041588664054870605, 0.017898214980959892, -0.009916048496961594, -0.015622702427208424], [0.06861498951911926, 0.0354180745780468, 0.016581345349550247, 0.0028346639592200518, 0.03172147646546364, 0.013350121676921844, 0.07061854749917984, -0.014102368615567684, -0.04466160759329796, -0.07015939056873322, 0.008370539173483849, 0.010326365008950233, 0.019532952457666397, 0.03263454511761665, 0.03005211055278778, -0.03263017162680626], [0.016894955188035965, -0.09544660151004791, -0.05919024348258972, 0.03313317522406578, 0.09895095229148865, 0.06899021565914154, 0.11380764842033386, 0.08242710679769516, -0.03254976496100426, 0.06307701021432877, 0.03515291213989258, -0.029685473069548607, 0.09930986166000366, 0.0012350433971732855, -0.055912476032972336, -0.005553697235882282], [0.11187919229269028, -0.038518261164426804, 0.027344755828380585, 0.021772049367427826, 0.06145200505852699, 0.04135829210281372, 0.19844600558280945, 0.10601573437452316, 0.02373846434056759, -0.046604547649621964, 0.003861124161630869, -0.030024321749806404, 0.06536450237035751, 0.00891943834722042, -0.04880436137318611, -0.0969703197479248], [0.03609282895922661, -0.11286002397537231, 0.07461944967508316, -0.04884173721075058, 0.10380367934703827, -0.0543467178940773, 0.1540706604719162, -0.029001472517848015, 0.07165606319904327, -0.008319485001266003, 0.05601093918085098, -0.022318314760923386, 0.11775677651166916, -0.047438375651836395, -0.07348784804344177, 0.002999822609126568], [0.08108419179916382, -0.00437341770157218, 0.07188086211681366, 0.0359550416469574, 0.02693983167409897, 0.04855681210756302, 0.12788629531860352, 0.04422000050544739, -0.006613636389374733, -0.027360089123249054, 0.10772475600242615, 0.050680067390203476, 0.034493401646614075, -0.11522239446640015, 0.04489238187670708, -0.08396884053945541], [0.07448668032884598, -0.13021518290042877, 0.0685039758682251, 0.03428982198238373, -0.02015744149684906, -0.026090208441019058, 0.13978594541549683, 0.06699564307928085, 0.045653488487005234, -0.03512111306190491, 0.03343883529305458, -0.04277167096734047, 0.08959821611642838, -0.017538757994771004, 0.02165900357067585, 0.030255652964115143], [0.14104443788528442, -0.12936712801456451, 0.15701797604560852, -0.05074506253004074, -0.003680175170302391, 0.040633849799633026, 0.0681893527507782, 0.0035662460140883923, 0.0578337237238884, -0.051524337381124496, 0.08538558334112167, 0.07262613624334335, 0.056922439485788345, -0.09987348318099976, 0.03462711721658707, -0.10869957506656647], [0.04655493423342705, -0.025475936010479927, 0.11927717924118042, -0.042763274163007736, 0.0057738409377634525, -0.013021646998822689, 0.12789306044578552, -0.02506665140390396, 0.09807785600423813, -0.05821652337908745, 0.007792020216584206, 0.011518789455294609, 0.10031495243310928, -0.04850827157497406, -0.0015776852378621697, -0.07060760259628296], [0.09259137511253357, -0.10050515830516815, 0.021840687841176987, -0.11632189899682999, -0.0006852442747913301, 0.10686417669057846, -0.010248606093227863, -0.028025547042489052, -0.024435166269540787, 0.002528415061533451, 0.005468043498694897, 0.04272713139653206, 0.10573411732912064, -0.052652306854724884, 0.07239419221878052, -0.0894523337483406], [0.06699585914611816, -0.04796518757939339, 0.05686277523636818, 0.012388523668050766, 0.047210387885570526, 0.00025729957269504666, -0.05720876157283783, -0.0028484344948083162, 0.11789024621248245, 0.029283270239830017, 0.006605121772736311, 0.037993595004081726, 0.0007143139955587685, -0.04227554425597191, -0.004681699443608522, 0.05103041231632233], [0.018260281533002853, -0.07537718862295151, 0.1007995754480362, -0.06019628047943115, -0.06587837636470795, 0.09706615656614304, 0.04133422672748566, -0.0013411943800747395, 0.007696628570556641, -0.07975183427333832, -0.0807725042104721, -0.06888806074857712, 0.12600357830524445, 0.028207330033183098, -0.07895094156265259, -0.042481012642383575], [-0.04202965646982193, -0.0312519334256649, 0.04046168550848961, 0.03777133673429489, -0.02101602591574192, 0.010168091394007206, -0.021162666380405426, -0.024887729436159134, 0.034971293061971664, 0.058687981218099594, 0.05705637112259865, -0.04876646772027016, 0.06100202351808548, 0.04141585901379585, 0.030684180557727814, 0.05313611030578613], [-0.011991098523139954, 0.06619473546743393, 0.09054088592529297, 0.009759328328073025, -0.050017695873975754, 0.040044549852609634, -0.016114570200443268, 0.010850823484361172, 0.09402349591255188, 0.021868862211704254, -0.06829918920993805, -0.042809195816516876, 0.054957520216703415, -0.03606317192316055, 0.048476167023181915, -0.05926880985498428], [-0.044508520513772964, 0.002251019235700369, -0.010266580618917942, -0.028843972831964493, 0.09270156174898148, -0.03677166998386383, -0.08091139793395996, -0.05367271974682808, -0.054543353617191315, 0.01485511939972639, 0.07876674085855484, 0.03055952675640583, -0.05381164699792862, 0.06306372582912445, 0.0017752184066921473, 0.03890097141265869], [-0.029503555968403816, 0.020339852198958397, 0.04785033315420151, 0.029214749112725258, 0.03988780826330185, -0.051702678203582764, -0.0826478973031044, 0.04020381718873978, -0.07416067272424698, -0.04829679802060127, -0.06042751669883728, -0.0808907300233841, -0.07995404303073883, 0.04843844473361969, 0.021958986297249794, -0.024495545774698257], [-0.04117170721292496, 0.056111156940460205, 0.053036510944366455, 0.02245042659342289, -0.0483880415558815, 0.07953336834907532, -0.017872612923383713, 0.049987874925136566, 0.060320619493722916, -0.07591454684734344, -0.05562210455536842, -0.008457680232822895, 0.025100579485297203, -0.02827623300254345, -0.062370240688323975, 0.02527938224375248], [-0.03838825225830078, 0.08258698880672455, -0.026200011372566223, -0.05850156769156456, -0.0745573341846466, 0.016893846914172173, -0.009031231515109539, -0.03166334331035614, 0.04589021950960159, 0.0838107168674469, -0.07032151520252228, 0.038873132318258286, 0.08029165863990784, 0.07790437340736389, -0.032663777470588684, -0.0384671613574028], [0.0773523822426796, 0.0648224800825119, -0.020887291058897972, 0.07002443075180054, 0.07288705557584763, -0.00418607983738184, -0.023741625249385834, 0.07502717524766922, 0.04361754283308983, 0.011390683241188526, -0.07416968047618866, 0.06440886110067368, 0.026429763063788414, -0.06265971064567566, -0.03995870426297188, 0.07519729435443878], [0.06951037049293518, -0.06480424106121063, 0.06490840762853622, 0.05242423340678215, -0.03866160660982132, 0.014474083669483662, -0.025752661749720573, 0.08320058882236481, 0.08364131301641464, -0.028132406994700432, 0.05169777572154999, 0.03543347120285034, 0.08625871688127518, 0.049856867641210556, 0.02733970433473587, -0.06528923660516739], [0.059139713644981384, -0.025063198059797287, 0.007980585098266602, 0.007582806050777435, 0.02418610453605652, -0.06802268326282501, -0.028986230492591858, 0.007163643836975098, -0.0820249542593956, 0.07900577783584595, 0.07151159644126892, -0.04101875424385071, 0.04285305738449097, 0.06576710939407349, -0.07027222216129303, -0.061888452619314194], [-0.011386338621377945, -0.04247085377573967, -0.0816439837217331, 0.07857607305049896, 0.023030057549476624, -0.03234018012881279, 0.03862883895635605, 0.06657499819993973, -0.01217995397746563, 0.06958309561014175, -0.014194995164871216, -0.026736069470643997, 0.07097569108009338, 0.027159977704286575, 0.02940213680267334, 0.018833931535482407], [0.014421326108276844, -0.030738692730665207, 0.006250185891985893, 0.020068975165486336, -0.03350161761045456, 0.023752951994538307, -0.05131641402840614, -0.06662631779909134, 0.026444289833307266, 0.008041471242904663, -0.07057883590459824, 0.02308627963066101, 0.0008162236190401018, -0.01735045574605465, 0.05658743157982826, 0.007460373919457197], [0.038582175970077515, -0.060719169676303864, -0.07948530465364456, 0.04157358780503273, 0.025117212906479836, 0.0717485249042511, 0.006488395389169455, 0.0507868155837059, -0.059025514870882034, 0.06943108886480331, 0.011199659667909145, -0.07666918635368347, -0.07612577825784683, -0.04239460825920105, 0.024714939296245575, -0.06760839372873306], [-0.014689730480313301, 0.014429268427193165, 0.004690489731729031, 0.06974256783723831, -0.026512300595641136, 0.05766214430332184, -0.02800890803337097, -0.023875288665294647, 0.029020439833402634, 0.07076971232891083, -0.08072090893983841, -0.09560710936784744, -0.07621980458498001, -0.007998296990990639, 0.06576093286275864, -0.07514690607786179], [0.019136905670166016, 0.06794456392526627, 0.009772778488695621, 0.06432235985994339, -0.04908227548003197, -0.0039176130667328835, 0.056254781782627106, -0.008530759252607822, -0.06557364016771317, -0.050304632633924484, -0.06348885595798492, -0.05618899688124657, -0.0017615556716918945, 0.028843658044934273, -0.03923283517360687, 0.03560592234134674], [0.08651935309171677, 0.07075350731611252, 0.012372244149446487, 0.07655985653400421, 0.09210610389709473, -0.013062749058008194, 0.028471367433667183, -0.03147164732217789, 0.06169435381889343, 0.07838801294565201, -0.008319945074617863, -0.09860259294509888, -0.006658641621470451, -0.010433991439640522, -0.0067734732292592525, -0.048767831176519394], [0.01965564861893654, 0.0025693338830024004, 0.02313658595085144, -0.04893714562058449, 0.10620906949043274, 0.08941365778446198, 0.14000186324119568, 0.06019053980708122, -0.07390060275793076, -0.06001613289117813, -0.06450581550598145, 0.06124719977378845, 0.0791998952627182, 0.04109150171279907, -0.02816276252269745, 0.006693125702440739], [0.1102978065609932, -0.04523025080561638, 0.03988821804523468, -0.07063557952642441, 0.00019284908194094896, 0.12237821519374847, 0.06589779257774353, 0.0654386654496193, 0.07570821791887283, 0.043670281767845154, -0.05775110423564911, -0.0277448371052742, -0.025473646819591522, 0.029474595561623573, 0.050510380417108536, -0.010884241200983524], [-0.027547437697649002, 0.06026821210980415, 0.0062500834465026855, -0.03985488787293434, -0.0201047882437706, -0.014235962182283401, 0.15383751690387726, 0.08988779038190842, -0.05560203269124031, -0.08373329788446426, 0.045911356806755066, -0.06408793479204178, 0.08400741219520569, 0.010385993868112564, 0.039941128343343735, 0.0028375168330967426], [0.15746739506721497, 0.0696154534816742, 0.027537252753973007, -0.0469898097217083, 0.13653171062469482, -0.027812013402581215, 0.10843822360038757, 0.01691119186580181, 0.07197853922843933, -0.09502562880516052, 0.02904535084962845, 0.031457025557756424, 0.06360719352960587, -0.028792157769203186, 0.06476354598999023, -0.004980558063834906], [0.16504500806331635, -0.0877000167965889, 0.020039865747094154, 0.058371301740407944, 0.022534869611263275, 0.082131028175354, 0.03371785953640938, 0.085132896900177, -0.0160956010222435, 0.041759125888347626, 0.04726237431168556, -0.001958028180524707, 0.04481891542673111, 0.04786945506930351, -0.05129428207874298, 0.058539118617773056], [0.12986603379249573, -0.0845385417342186, -0.044880982488393784, 0.06749553978443146, 0.09186165034770966, -0.04971029609441757, 0.059818800538778305, 0.0012749929446727037, 0.056378308683633804, 0.07297922670841217, 0.09899827092885971, 0.02721927873790264, 0.05624837428331375, -0.05082445219159126, -0.016258854418992996, 0.027933474630117416], [0.18525871634483337, -0.07884808629751205, 0.07842296361923218, 0.0634152963757515, 0.07622447609901428, -0.07243828475475311, 0.05328057333827019, -0.014270694926381111, -0.008399139158427715, 0.06218660995364189, -0.015470223501324654, -0.012966453097760677, 0.060807932168245316, 0.027819707989692688, -0.04469078779220581, -0.07795397937297821], [0.05242486298084259, 0.03346805274486542, -0.01964929886162281, 0.07882660627365112, 0.006653958931565285, -0.07307761162519455, 0.01908966898918152, -0.010901644825935364, 0.0135030597448349, -0.05409424751996994, 0.1083620935678482, 0.1612653136253357, 0.02031928300857544, 0.059081874787807465, -0.06488627195358276, -0.05669531226158142], [0.1445629745721817, -0.05454855412244797, 0.07583699375391006, 0.0030338354408740997, 0.027212638407945633, -0.13707959651947021, 0.12616640329360962, 0.03346279263496399, -0.006081279367208481, -0.016215477138757706, -0.03392317518591881, 0.20507606863975525, 0.09862285852432251, 0.07468108832836151, 0.01018509455025196, -0.0585542656481266], [0.14286769926548004, -0.10074838995933533, 0.06081412360072136, 0.05008832737803459, 0.10562412440776825, -0.02326411008834839, 0.030189035460352898, 0.025419706478714943, 0.07449481636285782, 0.034214086830616, 0.049533940851688385, 0.11151455342769623, 0.10248291492462158, 0.10247025638818741, -0.06646314263343811, 0.007573924958705902], [0.06082872301340103, -0.04795217141509056, 0.10358686745166779, -0.08872951567173004, 0.06638222187757492, -0.0944923609495163, -0.01287073828279972, 0.03660399839282036, -0.05752837657928467, -0.03032032400369644, 0.05582885444164276, 0.06873428076505661, 0.03437583148479462, -0.049478862434625626, -0.017543034628033638, -0.0271561611443758], [0.03310046344995499, 0.024757763370871544, 0.12177684158086777, 0.004051366355270147, 0.0733121708035469, -0.06577285379171371, 0.1096072718501091, -0.07532451301813126, 0.029843337833881378, -0.025507114827632904, -0.007597135379910469, 0.03080926276743412, 0.07225064933300018, -0.04290253296494484, -0.06959132105112076, 0.059005942195653915], [0.03293292596936226, -0.0830463171005249, 0.06306178867816925, -0.09936558455228806, -0.002806140808388591, -0.08389540016651154, 0.04211617633700371, -0.027400093153119087, 0.06921315938234329, 0.012795661576092243, -0.04663002863526344, -0.03747935965657234, 0.01567063480615616, 0.012354932725429535, -0.07199554145336151, 0.031511738896369934], [-0.009109542705118656, 0.03354744613170624, 0.1479334831237793, -0.026189444586634636, 0.07327435910701752, -0.02623385190963745, 0.031118394806981087, -0.08449126034975052, 0.002342375461012125, 0.015366989187896252, -0.018061039969325066, -0.07261744141578674, 0.08072409778833389, -0.1053641065955162, -0.0014037041692063212, -0.015271048061549664], [0.0398077555000782, -0.02975115366280079, 0.08331893384456635, -0.0447206050157547, -0.03290078043937683, 0.055115267634391785, 0.04226285591721535, -0.10876390337944031, -0.005748310126364231, -0.04567474126815796, -0.019255079329013824, -0.10520357638597488, -0.0024902326986193657, -0.020044559612870216, 0.0027651095297187567, 0.09377896040678024], [0.07377227395772934, -0.07736977934837341, 0.0618806928396225, -0.11087489873170853, 0.0180654376745224, 0.1033710464835167, -0.1071675717830658, -0.06926645338535309, 0.05771435797214508, 0.06088144704699516, -0.07692330330610275, -0.12180007994174957, -0.06382984668016434, -0.019772624596953392, 0.02727416157722473, 0.005136694293469191], [0.043631404638290405, 0.04369724169373512, 0.017357755452394485, -0.11474950611591339, 0.12456361949443817, 0.11262194067239761, -0.057221222668886185, 0.041990138590335846, -0.059592608362436295, 0.06027800589799881, 0.04830901697278023, -0.09360963106155396, -0.022491397336125374, -0.054114967584609985, -0.003358533140271902, 0.03010125458240509], [-0.04494421184062958, -0.027578504756093025, 0.057793062180280685, -0.056474264711141586, -0.028505180031061172, 0.035294484347105026, 0.0004906233516521752, -0.06376071274280548, -0.09384813159704208, -0.05453960970044136, 0.006314343772828579, -0.08507254719734192, -0.05550011247396469, 0.09727456420660019, 0.03224765136837959, 0.02326139248907566], [-0.046100765466690063, 0.029781874269247055, 0.00037971933488734066, -0.0945466160774231, 0.07438142597675323, -0.05097734555602074, -0.05152224376797676, -0.004310085438191891, 0.03885338455438614, -0.037743665277957916, -0.0014565323945134878, 0.04945523664355278, -0.05286750569939613, 0.03538226708769798, 0.053941939026117325, 0.01720462553203106], [-0.06011691316962242, 0.006677042692899704, -0.033091481775045395, 0.05718042328953743, 0.07114047557115555, 0.07288257032632828, -0.07926512509584427, -0.0052090780809521675, 0.06117945536971092, 0.08460099995136261, -0.02026817575097084, -0.010753805749118328, -0.057929087430238724, 0.06663587689399719, -0.03735129162669182, 0.024623317644000053], [0.017371995374560356, -0.04153788834810257, 0.005149885080754757, 0.028501734137535095, 0.07108893990516663, -0.017776692286133766, -0.047151729464530945, -0.06637860089540482, -0.037382591515779495, -0.06411679089069366, -0.053642433136701584, -0.06717104464769363, -0.026765605434775352, -0.07939117401838303, -0.026817213743925095, 0.016042640432715416], [-0.05672570317983627, -0.040027085691690445, 0.0345667339861393, 0.021328993141651154, 0.022540893405675888, -0.05465029552578926, 0.06860850751399994, 0.05191179737448692, -0.08067801594734192, 0.006710074841976166, -0.05202007293701172, -0.020568516105413437, -0.05170246958732605, -0.0612960122525692, 0.05458685755729675, -0.0493757426738739], [0.0002515777014195919, 0.0822843611240387, 0.04574105888605118, -0.04066785052418709, 0.06248561665415764, 0.04756294563412666, 0.05247468501329422, -0.05305344983935356, -0.009207417257130146, 0.02670229598879814, 0.02218117192387581, -0.03820519894361496, 0.01391520444303751, 0.06274718046188354, -0.07666096091270447, 0.05135498568415642], [0.005389414262026548, 0.0005147586343809962, -0.05534996837377548, -0.014875084161758423, -0.012010735459625721, 0.055615536868572235, 0.0033285701647400856, 0.0737028494477272, 0.06577471643686295, 0.037127166986465454, 0.06687631458044052, -0.02656353823840618, -0.08174721896648407, -0.060882020741701126, 0.00559228053316474, 0.023676883429288864], [0.01268041878938675, -0.06790845841169357, -0.03402920812368393, 0.04912972077727318, 0.015119228512048721, -0.07709590345621109, 0.06454263627529144, -0.07673333585262299, -0.05645843222737312, -0.018830567598342896, 0.06999015063047409, -0.009105363860726357, 0.045298051089048386, 0.029306799173355103, 0.022208044305443764, 0.06943481415510178], [-0.043915968388319016, 0.03334396332502365, -0.04283368960022926, -0.008044968359172344, -0.020687285810709, 0.05862771347165108, 0.07103818655014038, 0.08159564435482025, 0.008666620589792728, -0.051791321486234665, 0.010622212663292885, -0.013537274673581123, 0.08231206983327866, 0.053414713591337204, -0.05606646090745926, 0.06570171564817429], [-0.011446190997958183, 0.012063311412930489, 0.0661010667681694, -0.029555531218647957, 0.0007565959822386503, -0.040959764271974564, 0.12177778780460358, 0.047749169170856476, 0.05697120353579521, 0.013950101099908352, -0.004853891674429178, -0.019767068326473236, -0.049222517758607864, -0.02972935140132904, -0.022447427734732628, -0.06535699218511581], [0.047741636633872986, 0.04819508641958237, 0.06707452982664108, 0.06808298081159592, 0.08618692308664322, 0.02670532464981079, 0.09202173352241516, 0.0012092479737475514, 0.05225308611989021, 0.0032688607461750507, 0.008457256481051445, 0.04369014501571655, 0.012442328967154026, -0.0804322361946106, 0.007112742401659489, -0.09306717664003372], [0.08081802725791931, -0.015144996345043182, -0.0950620025396347, 0.06595080345869064, 0.011662881821393967, 0.09525712579488754, 0.02536463737487793, -0.0023786257952451706, -0.0575406476855278, 0.013163630850613117, 0.08350278437137604, -0.0541851669549942, 0.048108603805303574, -0.08376757055521011, -0.010747377760708332, -0.09169726073741913], [0.11830966174602509, 0.09307941794395447, 0.01674112118780613, -0.05003572255373001, -0.018416572362184525, 0.10000523924827576, 0.0040693278424441814, 0.1566130518913269, 0.060897745192050934, 0.05218278244137764, -0.020770085975527763, -0.052271995693445206, -0.012439165264368057, -0.06605343520641327, 0.07312221080064774, -0.08134635537862778], [0.09161742031574249, -0.0646730363368988, 0.04535515233874321, -0.038553766906261444, 0.12784123420715332, 0.0009586653904989362, 0.0008495197398588061, 0.05561565235257149, -0.054728467017412186, -0.04508369043469429, 0.000442434597061947, 0.06250303238630295, -0.07034588605165482, -0.05311209708452225, 0.0538288876414299, -0.004076019395142794], [0.14897851645946503, 0.028140004724264145, -0.021041659638285637, 0.06721199303865433, -0.00026266975328326225, 0.04088178649544716, 0.13173909485340118, 0.11713182181119919, 0.03876817598938942, -0.011585364118218422, 0.05221979692578316, 0.06861486285924911, -0.07476881891489029, 0.10164820402860641, -0.03808214142918587, -0.029722338542342186], [0.07195204496383667, 0.048698790371418, 0.05398418754339218, 0.01802786998450756, -0.00863783061504364, 0.0052420166321098804, 0.03313576802611351, -0.01699548400938511, -0.08048868179321289, -0.00958871841430664, 0.014769249595701694, 0.04343453794717789, 0.05268653482198715, 0.10016019642353058, 0.02960258722305298, 0.07107548415660858], [0.14519235491752625, 0.08558562397956848, 0.10105296969413757, 0.09257379919290543, 0.007081413641571999, 0.013970596715807915, 0.009145294316112995, 0.014483829028904438, -0.025143515318632126, 0.07742553949356079, -0.0003167656250298023, 0.1314987987279892, 0.06221814826130867, 0.12931565940380096, 0.055885765701532364, 0.011202610097825527], [0.11981894820928574, 0.12810713052749634, 0.02693074569106102, 0.13882623612880707, 0.04917064309120178, -0.11652633547782898, 0.10337544232606888, 0.1262393593788147, -0.049411922693252563, 0.03780126944184303, 0.0602792389690876, 0.20108793675899506, -0.00088085001334548, 0.08032707124948502, -0.06216796487569809, 0.0758851170539856], [0.10082303732633591, 0.0901399552822113, 0.041928261518478394, 0.07587294280529022, 0.12926128506660461, -0.1502842754125595, 0.037050213664770126, -0.004576554987579584, -0.00387599621899426, 0.0036810494493693113, 0.01619168557226658, 0.20592881739139557, 0.03463442623615265, 0.08664394915103912, -0.01588684506714344, -0.06967917829751968], [0.048025019466876984, 0.1200992688536644, 0.0734543725848198, 0.07177671790122986, 0.025380922481417656, -0.19699732959270477, 0.11269807815551758, 0.08776402473449707, -0.06533738225698471, -0.032843079417943954, -0.03169761225581169, 0.23534375429153442, 0.001847027917392552, 0.20673298835754395, -0.0473732054233551, 0.07630880922079086], [0.06556493043899536, 0.0352429524064064, -0.0693669393658638, 0.18931858241558075, 0.079664446413517, -0.09318836778402328, 0.05486137047410011, 0.08377537876367569, -0.04461026191711426, 0.024628866463899612, -0.05202077701687813, 0.2917501926422119, 0.03567348048090935, 0.17226815223693848, -0.026483142748475075, 0.007176220882683992], [0.053334224969148636, 0.07891473919153214, -0.029883699491620064, 0.07257376611232758, 0.01673981174826622, -0.10829466581344604, 0.08842947334051132, 0.00202972162514925, -0.08045589178800583, 0.0749446228146553, 0.02402140200138092, 0.1683337688446045, 0.082697793841362, 0.10436151176691055, -0.036855995655059814, 0.05031698942184448], [0.06435263156890869, 0.09627201408147812, 0.008501360192894936, 0.016613656654953957, 0.04032578319311142, -0.12793102860450745, 0.11069580167531967, -0.02339574694633484, 0.014673534780740738, -0.019869046285748482, -0.06626103073358536, 0.10900069773197174, -0.014709139242768288, -0.04106806591153145, 0.020085105672478676, -0.0015083174221217632], [0.14144554734230042, 0.125362828373909, 0.09730403870344162, -0.10331810265779495, 0.04768899455666542, -0.07549849152565002, 0.02853681519627571, 0.0003642220690380782, -0.0379665344953537, 0.04377543926239014, -0.07981520146131516, 0.023941442370414734, 0.08554015308618546, -0.010008089244365692, -0.06641259789466858, 0.03614691644906998], [0.07477708160877228, 0.0790141224861145, 0.06860508769750595, -0.09477691352367401, -0.01540299877524376, -0.020129727199673653, -0.045692455023527145, -0.0208209827542305, 0.08240479975938797, 0.08393429219722748, 0.05501063913106918, -0.0743812844157219, 0.057650111615657806, -0.06961005181074142, -0.04283888638019562, -0.011290625669062138], [0.058395471423864365, -0.05228898674249649, 0.03645054250955582, -0.12599100172519684, 0.024327872321009636, 0.03976157307624817, -0.017119690775871277, -0.06129254400730133, -0.018844297155737877, -0.010705407708883286, 0.07867244631052017, 0.041569262742996216, 0.00024569276138208807, 0.0408971831202507, -0.015254808589816093, 0.032186221331357956], [0.07671032845973969, -0.07104633748531342, 0.07816687226295471, -0.182125523686409, 0.10955653339624405, 0.029987966641783714, -0.0396089069545269, -0.08557963371276855, 0.07304453104734421, -0.08006657660007477, -0.06218668818473816, -0.07471086084842682, 0.07088973373174667, -0.015756135806441307, -0.020133109763264656, 0.1252763420343399], [0.016476115211844444, -0.022349225357174873, 0.0696391686797142, -0.11830373108386993, 0.13304941356182098, 0.04436330497264862, -0.01290938351303339, -0.0018068859353661537, -0.09028893709182739, -0.0748877078294754, 0.04212763160467148, -0.016241300851106644, 0.02818458154797554, -0.011001130566000938, 0.008865961804986, 0.13123014569282532], [0.11128385365009308, -0.003453938290476799, -0.019136950373649597, -0.041316624730825424, 0.11612698435783386, 0.01865103654563427, 0.003893417539075017, -0.04489721357822418, 0.013165339827537537, -0.034400396049022675, 0.07553517818450928, 0.0020627749618142843, -0.024984000250697136, 0.08261749893426895, -0.05878215283155441, 0.019347377121448517], [0.04629912227392197, 0.004237928427755833, -0.04132813960313797, -0.08322641998529434, -0.03428398072719574, -0.04002755507826805, -0.011774378828704357, -0.011717536486685276, -0.010826935060322285, 0.016373135149478912, 0.04271558299660683, -0.026339702308177948, -0.035121966153383255, -0.05802972614765167, -0.05686243623495102, 0.062320008873939514], [-0.03199925646185875, 0.0003070314705837518, 0.051738541573286057, 0.04489695653319359, 0.015002492815256119, 0.07019218802452087, -0.07200932502746582, 0.07785747945308685, 0.05827201530337334, 0.06644126772880554, 0.01911851018667221, -0.08623068034648895, 0.017159929499030113, -0.050225138664245605, -0.07477930188179016, -0.02931029163300991], [-0.05737939104437828, 0.08007455617189407, -0.045818571001291275, 0.03711458668112755, 0.07259762287139893, 0.08332870900630951, 0.01188779715448618, 0.0072982432320714, 0.011740205809473991, -0.004089458845555782, 0.07244668155908585, 0.012842859141528606, -0.012271354906260967, 0.08566213399171829, 0.050175830721855164, -0.0738600343465805], [-0.07509805262088776, -0.01573970541357994, -0.0503566674888134, 0.08123763650655746, 0.0007542350213043392, -0.05824686214327812, -0.07350528240203857, -0.025774532929062843, -0.08307965844869614, -0.02332034707069397, 0.01250465214252472, -0.01864987425506115, 0.020167410373687744, -0.07290325313806534, -0.06667063385248184, -0.07153787463903427], [-0.05157816410064697, -0.08255963772535324, -0.0006596242892555892, -0.054107826203107834, 0.008311702869832516, -0.07060553878545761, -0.06042744591832161, -0.08235692977905273, -0.062117718160152435, 0.04039759933948517, -0.07483375072479248, 0.04836941510438919, -0.03319155052304268, 0.06718852370977402, -0.009179450571537018, -0.03674616292119026], [-0.04364386200904846, -0.06847135722637177, -0.022279750555753708, -0.07690047472715378, 0.07526606321334839, 0.07766497880220413, -0.04282437264919281, -0.04256618767976761, 0.07107093930244446, 0.06562484800815582, -0.007567569147795439, -0.08362799882888794, 0.044492002576589584, 0.043292656540870667, -0.07379759103059769, -0.06964563578367233], [0.06250066310167313, -0.05326247960329056, 0.07179489731788635, -0.03871068358421326, -0.00306885177269578, -0.06448324024677277, 0.0525604784488678, -0.06969749927520752, -0.08351077884435654, 0.07492238283157349, 0.017304109409451485, 0.05714498460292816, 0.013046279549598694, 0.01491625141352415, -0.03786545991897583, -0.08830386400222778], [0.05914856866002083, -0.03377025946974754, 0.0424165353178978, -0.046606387943029404, -0.08678164333105087, -0.07019521296024323, 0.07537594437599182, 0.028428521007299423, 0.03684576228260994, 0.061517421156167984, -0.08357049524784088, -0.0044550648890435696, -0.010487889871001244, -0.06479378789663315, 0.07971536368131638, -0.051256079226732254], [-0.002009799238294363, 0.07496833801269531, -0.04814879223704338, -0.0811791941523552, 0.06755449622869492, -0.04808967188000679, 0.10256222635507584, 0.11127772182226181, -0.027965176850557327, 0.054361891001462936, -0.009351076558232307, -0.09473023563623428, -0.021300384774804115, 0.02547130361199379, 0.027524422854185104, 0.004056525882333517], [0.11848335713148117, -0.04382825270295143, -0.09503421187400818, -0.07023900747299194, -0.0789145678281784, 0.1098586767911911, 0.020194141194224358, 0.07465629279613495, 0.07679857313632965, -0.022108782082796097, 0.06873351335525513, -0.006531496066600084, 0.010744908824563026, 0.07091888785362244, -0.08324237912893295, 0.06553609669208527], [0.09433168917894363, 0.045238032937049866, -0.03346746414899826, -0.02072996459901333, 0.00672563724219799, 0.09730065613985062, -0.03836053982377052, 0.11757614463567734, 0.07574015855789185, -0.05104820802807808, -0.020280783995985985, -0.026851551607251167, 0.03343169763684273, 0.016484493389725685, -0.012803741730749607, 0.04525422677397728], [0.16030298173427582, 0.04824389889836311, -0.04078163206577301, 0.06757496297359467, -0.06154898554086685, 0.033285047858953476, 0.052671607583761215, 0.03277619555592537, -0.04482356831431389, 0.013042795471847057, 0.09483355283737183, -0.07786878943443298, -0.1172805204987526, -0.03260311856865883, 0.047035638242959976, -0.054228391498327255], [0.1236596554517746, 0.014926102012395859, 0.009572774171829224, 0.08399546891450882, 0.05914914980530739, 0.12463417649269104, -0.0070333476178348064, -0.029677381739020348, 0.048490263521671295, -0.07331402599811554, 0.02609080635011196, 0.05008271336555481, 0.024565553292632103, -0.013566024601459503, -0.0824253186583519, -0.01727966219186783], [0.14476437866687775, 0.030680544674396515, -0.04437056928873062, -0.0216775331646204, -0.05236538499593735, 0.04705119878053665, 0.043520890176296234, 0.09995976835489273, -0.028531799092888832, 0.011548779904842377, 0.07409045845270157, 0.01825004816055298, -0.1304156482219696, -0.029832307249307632, -0.023381628096103668, -0.04931362718343735], [0.14202557504177094, 0.07125035673379898, -0.03670448437333107, -0.013747652061283588, 0.101200632750988, 0.0511583536863327, 0.00803442019969225, 0.09477224946022034, -0.09875369817018509, -0.006627676077187061, 0.003377375891432166, 0.1228400468826294, 0.03801387548446655, 0.04939538240432739, 0.04466920346021652, -0.01428826805204153], [0.1532905250787735, 0.08275427669286728, 0.029023760929703712, 0.10189042240381241, -0.06223946809768677, -0.030577532947063446, 0.055685367435216904, 0.09653344750404358, 0.0021605987567454576, -0.06594592332839966, -0.018648860976099968, 0.07623348385095596, 0.038547150790691376, 0.08792947977781296, -0.08440376073122025, 0.07985741645097733], [0.00044143004924990237, 0.15141509473323822, -0.01098115835338831, 0.12709587812423706, -0.08346687257289886, -0.10180249810218811, 0.10037185251712799, 0.010400539264082909, -0.12317365407943726, -0.042441900819540024, -0.015835389494895935, 0.10094251483678818, -0.03981843218207359, 0.04466104134917259, 0.07371865957975388, -0.006902968976646662], [0.11190386861562729, 0.053989991545677185, 0.08815817534923553, 0.22963304817676544, -0.044920407235622406, -0.05071074515581131, 0.1460457146167755, -0.016288766637444496, -0.00651980796828866, -0.023157071322202682, 0.0683324858546257, 0.18925467133522034, 0.04142766445875168, 0.06539704650640488, 0.0673355832695961, 0.059595175087451935], [0.05408162623643875, 0.16457177698612213, 0.06733675301074982, 0.16297197341918945, -0.07340417057275772, -0.10903745889663696, 0.11457456648349762, 0.09202530235052109, -0.1377558708190918, 0.10865603387355804, 0.07215899229049683, 0.17434193193912506, -0.033110056072473526, 0.15377193689346313, 0.07881320267915726, -0.04754498973488808], [0.15654624998569489, 0.11675091832876205, -0.023968828842043877, 0.08535179495811462, -0.10505131632089615, -0.09650406986474991, 0.1737469881772995, 0.06545437127351761, -0.09714224189519882, -0.030490217730402946, -0.046619538217782974, 0.10427362471818924, 0.05836047977209091, 0.09183487296104431, 0.06032897159457207, 0.04816851764917374], [0.09456141293048859, 0.23536597192287445, 0.04060804843902588, 0.05133829638361931, 0.0026328610256314278, -0.10725660622119904, 0.1581767052412033, 0.02382664754986763, 0.007634432055056095, 0.10257925093173981, 0.06695284694433212, 0.13635754585266113, 0.032625462859869, 0.06125370040535927, -0.0467970035970211, 0.021244404837489128], [0.1704844832420349, 0.10782413929700851, 0.057885389775037766, 0.047978442162275314, -0.0733209028840065, -0.017412731423974037, 0.02212635427713394, 0.07304253429174423, 0.025378763675689697, -0.05909072607755661, -0.073092982172966, 0.025209881365299225, 0.06216759607195854, -0.029504109174013138, -0.03978075459599495, 0.008053125813603401], [0.08543184399604797, 0.08421481400728226, 0.05380537360906601, -0.09896737337112427, -0.048951853066682816, -0.08543463796377182, 0.0021778359077870846, 0.016834933310747147, 0.03348425775766373, -0.07066860795021057, -0.07173261046409607, 0.057990096509456635, 0.004984147381037474, 0.04227408021688461, -0.0756809264421463, 0.09686273336410522], [0.10211394727230072, 0.04074757546186447, 0.06501547992229462, -0.06643099337816238, -0.03499655798077583, -0.02010270394384861, 0.04198933392763138, 0.09602028876543045, 0.06590794026851654, -0.005029190797358751, -0.08218284696340561, -0.043580785393714905, 0.052076373249292374, -0.03467431291937828, -0.07276854664087296, 0.09253595769405365], [0.07759199291467667, 0.058744464069604874, 0.018897082656621933, -0.15509605407714844, -0.02625279501080513, 0.04265327379107475, 0.06630752980709076, 0.06831901520490646, 0.004999682307243347, 0.0071764057502150536, -0.010916654020547867, 0.0189807265996933, -0.031042102724313736, -0.03180868551135063, -0.0798189714550972, 0.06335482746362686], [0.1069389134645462, 0.03705507144331932, 0.0648210197687149, -0.03409025818109512, 9.306313586421311e-06, -0.07576745003461838, -0.03346482291817665, 0.033229708671569824, -0.0067344834096729755, -0.04849100112915039, -0.009634074755012989, 0.009240522049367428, -0.07848959416151047, -0.06302518397569656, -0.0009205547976307571, -0.011533685028553009], [0.20622870326042175, -0.06852950155735016, -0.02833682671189308, -0.09535571932792664, -0.04000310227274895, 0.06832119077444077, -0.04291924089193344, -0.05085231736302376, -0.015572804026305676, -0.050920385867357254, -0.0017167412443086505, -0.03403478488326073, 0.05783133953809738, -0.06201360374689102, 0.0021864098962396383, 0.14632928371429443], [0.16429395973682404, 0.06275928765535355, 0.11605212092399597, -0.06136054918169975, -0.008895973674952984, 0.054403502494096756, -0.15462011098861694, -0.08985293656587601, 0.011991780251264572, 0.032087404280900955, -0.04585399851202965, -0.03886345773935318, 0.059363190084695816, 0.09329908341169357, -0.005011709872633219, 0.13032642006874084], [-0.007046798709779978, 0.02920670621097088, 0.0461944155395031, -0.12279394268989563, 0.11645400524139404, -0.04089682549238205, -0.045674148947000504, 0.026969142258167267, -0.11539767682552338, -0.013705801218748093, -0.06502837687730789, 0.020363496616482735, 0.06196648254990578, -0.022287704050540924, 0.08156212419271469, 0.03995911404490471], [-0.05771855637431145, -0.013856573961675167, 0.01960054598748684, -0.02332446724176407, -0.05348030850291252, -0.07377085089683533, -0.055563945323228836, -0.02875692956149578, -0.03536049649119377, 0.027291487902402878, 0.0055545964278280735, -0.07658153772354126, -0.061545588076114655, -0.04676907882094383, 0.07067090272903442, -0.014004559256136417], [-0.0004756624693982303, -0.005899133626371622, -0.05421382933855057, -0.05034395679831505, -0.07962530851364136, 0.004967674612998962, 0.04388922452926636, -0.03368867561221123, 0.05019079148769379, 0.03887554258108139, -0.026100553572177887, 0.036857280880212784, 0.041142258793115616, -0.07668551057577133, -0.00450656795874238, 0.03891722112894058], [0.07204896211624146, -0.04075552150607109, 0.07739909738302231, -0.06884561479091644, -0.004756747744977474, -0.04202466458082199, -0.08415914326906204, -0.011083496734499931, 0.07326018065214157, -0.005330376327037811, 0.029691509902477264, 0.07543705403804779, -0.0471513532102108, -0.056865543127059937, 0.04439312219619751, 0.08082149177789688], [-0.06915437430143356, -0.03318801149725914, -0.05244794115424156, 0.019383884966373444, 0.0006305258139036596, -0.04611239954829216, -0.04440819099545479, 0.03522737696766853, -0.008700128644704819, 0.030409405007958412, -0.03289593383669853, -0.026001669466495514, 0.060563914477825165, 0.07756984978914261, 0.01775944232940674, 0.06808086484670639], [-0.012870250269770622, -0.005724447313696146, 0.010748689994215965, -0.011791037395596504, 0.05106350779533386, 0.05126034840941429, 0.06029055640101433, -0.027349509298801422, 0.04604208841919899, -0.0467643141746521, 0.01064910739660263, -0.026575881987810135, -0.052091289311647415, 0.004623922985047102, 0.07637699693441391, 0.054811228066682816], [0.010093548335134983, -0.01981346867978573, 0.02627713792026043, -0.03263300657272339, -0.09749561548233032, -0.041978634893894196, 0.07437409460544586, 0.018010703846812248, -0.06472189724445343, 0.041785284876823425, 0.0814957320690155, -0.08402789384126663, -0.010847522877156734, 0.032118622213602066, -0.01535657700151205, -0.01003124751150608], [0.003041062969714403, -0.04302871227264404, 0.0066420407965779305, 0.09085941314697266, -0.008425471372902393, 0.08394274115562439, -0.03273063898086548, -0.04484904184937477, 0.08450422435998917, -0.055176351219415665, -0.018762854859232903, -0.05081026628613472, -0.07644570618867874, 0.08467712253332138, -0.00252905604429543, -0.068252332508564], [0.04088199511170387, 0.024320466443896294, -0.04842633381485939, 0.04272721707820892, 0.047407593578100204, 0.034766145050525665, 0.0003478245926089585, -0.01437622681260109, -0.0593043714761734, -0.07475898414850235, 0.0016451963456347585, 0.01576288789510727, -0.07679972797632217, 0.05620582401752472, -0.08501928299665451, -0.04907988756895065], [0.03041362576186657, 0.05402849242091179, -0.07733053714036942, 0.09382110089063644, 0.039482004940509796, 0.03277669474482536, 0.07703646272420883, -0.05922883749008179, 0.01179224718362093, -0.02744133025407791, 0.042347945272922516, 0.04789383336901665, 0.010990546084940434, -0.0677054300904274, -0.04406062141060829, -0.030311156064271927], [0.01802201010286808, 0.0874306932091713, 0.016126256436109543, 0.1078469455242157, 0.007051405031234026, 0.04388294741511345, 0.001419611624442041, -0.038479045033454895, -0.0058513605035841465, -0.06595852226018906, 0.03541383147239685, -0.06808454543352127, -0.08086416870355606, -0.058469437062740326, -0.013278190046548843, 4.430658009368926e-05], [0.17343132197856903, 0.09927080571651459, 0.013784771785140038, -0.040736205875873566, -0.05622987076640129, 0.12904028594493866, -0.06254113465547562, -0.05771263688802719, -0.01443544216454029, -0.08541177213191986, -0.029645532369613647, 0.09175344556570053, -0.054948050528764725, 0.04943244904279709, 0.009210172109305859, -0.026798022910952568], [0.1290733814239502, 0.1159835234284401, 0.020258352160453796, -0.026634300127625465, -0.01613662950694561, 0.06753448396921158, -0.1397184431552887, -0.0755247101187706, 0.029282409697771072, 0.0115152383223176, 0.04533575102686882, 0.129903182387352, -0.03471797704696655, 0.08443495631217957, -0.08036923408508301, 0.03401383385062218], [0.11920609325170517, 0.05983098968863487, 0.08086134493350983, 0.013969272375106812, 0.07747197151184082, 0.012385576032102108, -0.005792496260255575, 0.013005252927541733, -0.05993572250008583, -0.06870882958173752, 0.07930436730384827, 0.06520034372806549, -0.09556775540113449, 0.030640361830592155, -0.08931086957454681, 0.05229904130101204], [0.07501892000436783, 0.004690851550549269, -0.009571059606969357, -0.0343443937599659, -0.03839222714304924, 0.0634453296661377, -0.026868030428886414, -0.032828573137521744, -0.08322388678789139, -0.054736919701099396, 0.06694766879081726, 0.16230501234531403, -0.08306214213371277, 0.10922912508249283, -0.05096897855401039, 0.011297192424535751], [0.13664142787456512, 0.12229759246110916, 0.06543000042438507, -0.03656980022788048, 0.02217448689043522, 0.0711669996380806, 0.001743858796544373, -0.027409711852669716, -0.009530235081911087, -0.02002519927918911, -0.05152209848165512, 0.1449640840291977, 0.017481684684753418, 0.08793465793132782, 0.013087977655231953, -0.03163479268550873], [0.11085620522499084, 0.10759656131267548, -0.009632788598537445, 0.15454623103141785, -0.09244750440120697, 0.05639560520648956, -0.025449931621551514, -0.0531071312725544, -0.0005600641015917063, 0.034045033156871796, -0.03809759393334389, 0.10076798498630524, 0.0600152425467968, 0.0468747653067112, 0.0476117767393589, 0.017824195325374603], [0.05440312623977661, 0.12931282818317413, 0.08288994431495667, 0.2007119357585907, -0.22031117975711823, -0.025648552924394608, 0.07999483495950699, 0.0049597215838730335, -0.10222967714071274, 0.015104350633919239, -0.08569933474063873, -0.024405743926763535, 0.09419243037700653, 0.010312896221876144, -0.05082220211625099, -0.021081922575831413], [0.13144947588443756, 0.15896770358085632, 0.0490863211452961, 0.15427803993225098, -0.09983312338590622, -0.016315950080752373, 0.0969650074839592, 0.13618561625480652, -0.03542281314730644, -0.03713506460189819, -0.034447457641363144, -0.04334823787212372, -0.0029482932295650244, 0.08903457969427109, 0.07174976915121078, 0.06398643553256989], [0.11610299348831177, 0.13726161420345306, 0.06573892384767532, 0.12402356415987015, -0.14971749484539032, -0.09330936521291733, 0.06928391009569168, 0.061037302017211914, 0.08674945682287216, -0.0032813954167068005, -0.013754173181951046, 0.009430557489395142, 0.09388357400894165, -0.06037897989153862, -0.07323476672172546, -0.02309151366353035], [0.05408807471394539, 0.15547369420528412, 0.07168430835008621, -0.01859026961028576, -0.13484059274196625, -0.02458212897181511, 0.15767395496368408, 0.08703894913196564, -0.012547321617603302, -0.04632634297013283, -0.041430797427892685, 0.0594962015748024, -0.06034579128026962, -0.0034937765449285507, -0.05868607386946678, 0.0826556608080864], [0.0772382840514183, 0.14251990616321564, -0.02619842439889908, -0.06664402782917023, -0.018549766391515732, -0.051283251494169235, 0.08852668106555939, 0.06374313682317734, 0.053590670228004456, -0.02040916122496128, 0.07247301936149597, -0.013695123605430126, -0.08989216387271881, -0.10370273143053055, -0.05626941844820976, 0.10977515578269958], [0.11881407350301743, 0.18371596932411194, -0.05606692656874657, 0.016506219282746315, -0.053298939019441605, -0.14193177223205566, 0.12526576220989227, 0.03701021894812584, 0.0958964079618454, -0.02293277345597744, -0.06669959425926208, 0.1027640700340271, 0.06099402531981468, -0.03461175784468651, 0.06761611253023148, 0.01950150541961193], [0.22705690562725067, 0.07681304961442947, -0.014212661422789097, 6.125447544036433e-05, -0.037940479815006256, 0.018867848441004753, 0.07678525894880295, 0.025454305112361908, 0.04073331132531166, -0.015262162312865257, -0.0747724324464798, 0.01668626070022583, -0.007136942353099585, -0.015376195311546326, -0.03512527048587799, 0.014000045135617256], [0.14960891008377075, 0.10020352900028229, 0.042917486280202866, -0.0797709971666336, 0.041040465235710144, 0.018582496792078018, -0.00035075712366960943, 0.030789701268076897, 0.006272069178521633, 0.07260116934776306, -0.07314017415046692, 0.05748710408806801, 0.07355808466672897, -0.011511923745274544, -0.08282361179590225, 0.03325110673904419], [0.15385018289089203, -0.03103918768465519, -0.062159162014722824, -0.10211628675460815, 0.028623946011066437, 0.04635770991444588, -0.0383322536945343, -0.053378842771053314, -0.05298394709825516, -0.07854247093200684, -0.07127245515584946, 0.006394080352038145, -0.053429145365953445, -0.06390898674726486, 0.042464807629585266, -0.0005976532120257616], [0.13110847771167755, 0.030761679634451866, 0.07165882736444473, -0.13933169841766357, -0.06308915466070175, 0.04220367968082428, -0.0866725817322731, -0.09724099189043045, -0.10556840896606445, 0.0014033290790393949, 0.06097365543246269, 0.06280014663934708, 0.004470459651201963, -0.07638341188430786, 0.004349375143647194, 0.027086487039923668], [0.16391730308532715, -0.07886780053377151, 0.01864440366625786, -0.03488045185804367, 0.011561919003725052, -0.07932198792695999, -0.09785827249288559, -0.024172939360141754, -0.10323319584131241, -0.049429964274168015, -0.023599227890372276, -0.05164889618754387, -0.048428941518068314, 0.09352006763219833, 0.009990868158638477, 0.06229206174612045], [0.04313262552022934, 0.033682338893413544, -0.04039212688803673, -0.07143313437700272, -0.03781411051750183, 0.02917974628508091, 0.028681917116045952, 0.023644382134079933, -0.017876455560326576, -0.034228306263685226, -0.05707712098956108, -0.050593674182891846, 0.044292230159044266, 0.08806980401277542, -0.08596473932266235, -0.03259970620274544], [-0.02744533121585846, 0.05715227872133255, -0.006152941379696131, 0.06937557458877563, 0.08813542872667313, 0.058645252138376236, 0.0724838599562645, -0.08259173482656479, -0.021122705191373825, -0.05074845999479294, -0.04601438716053963, 0.012030605226755142, -0.07664204388856888, -0.060194794088602066, -0.04757010191679001, -0.0507257878780365], [0.08712215721607208, -0.06634219735860825, 0.08423717319965363, 0.029458794742822647, 0.06994045525789261, 0.026810212060809135, 0.020312251523137093, 0.02058921940624714, -0.08580096811056137, -0.04572787508368492, -0.025327321141958237, -0.06888985633850098, -0.05128031596541405, 0.03505175560712814, -0.03365244343876839, 0.05436519533395767], [0.07304961234331131, 0.05130439251661301, 0.03442922234535217, 0.0052307890728116035, -0.04540913179516792, 0.0018601685296744108, 0.05419596657156944, 0.03055587224662304, 0.08632652461528778, 0.05231080949306488, -0.0765349268913269, 0.060826126486063004, -0.03841085359454155, 0.05795250087976456, -0.03789139911532402, 0.00797862745821476], [-0.003923093434423208, 0.06911258399486542, -0.000522218004334718, -0.06695204228162766, -0.06741762906312943, -0.060172032564878464, 0.030368410050868988, -0.03861233964562416, 0.0605238638818264, -0.01823040284216404, 0.08312320709228516, 0.07076145708560944, -0.024990374222397804, -0.07227851450443268, 0.07904118299484253, -0.01772502437233925], [-0.044982943683862686, -0.0048826271668076515, -0.007102841045707464, 0.05827045440673828, -0.050545528531074524, -0.08014492690563202, -0.04180121421813965, 0.08669891208410263, 0.0512813925743103, -0.0717870220541954, -0.032032765448093414, 0.005838009994477034, -0.05824809893965721, -0.02665773034095764, 0.005173996090888977, -0.05812542140483856], [0.06646493822336197, 0.03071463480591774, 0.06937654316425323, 0.0524471141397953, -0.0993933156132698, -0.008238074369728565, 0.04503960534930229, -0.014479123055934906, 0.05673128738999367, 0.053194817155599594, 0.004192044958472252, 0.012375866994261742, -0.07459495961666107, 0.017240673303604126, 0.03499162569642067, 0.05164371803402901], [0.1016063392162323, 0.06529112160205841, -0.08363868296146393, 0.029735377058386803, -0.1071617603302002, 0.05046046897768974, -0.05778922885656357, -0.05757279321551323, 0.030997619032859802, -0.0040069338865578175, -0.040075987577438354, -0.00544529315084219, -0.07823682576417923, -0.07727164775133133, -0.016938038170337677, 0.02835310436785221], [0.030952971428632736, -0.044615428894758224, 0.049857351928949356, 